{"learner":{"attributes":{},"feature_names":[],"feature_types":[],"gradient_booster":{"model":{"gbtree_model_param":{"num_parallel_tree":"1","num_trees":"1500"},"iteration_indptr":[0,3,6,9,12,15,18,21,24,27,30,33,36,39,42,45,48,51,54,57,60,63,66,69,72,75,78,81,84,87,90,93,96,99,102,105,108,111,114,117,120,123,126,129,132,135,138,141,144,147,150,153,156,159,162,165,168,171,174,177,180,183,186,189,192,195,198,201,204,207,210,213,216,219,222,225,228,231,234,237,240,243,246,249,252,255,258,261,264,267,270,273,276,279,282,285,288,291,294,297,300,303,306,309,312,315,318,321,324,327,330,333,336,339,342,345,348,351,354,357,360,363,366,369,372,375,378,381,384,387,390,393,396,399,402,405,408,411,414,417,420,423,426,429,432,435,438,441,444,447,450,453,456,459,462,465,468,471,474,477,480,483,486,489,492,495,498,501,504,507,510,513,516,519,522,525,528,531,534,537,540,543,546,549,552,555,558,561,564,567,570,573,576,579,582,585,588,591,594,597,600,603,606,609,612,615,618,621,624,627,630,633,636,639,642,645,648,651,654,657,660,663,666,669,672,675,678,681,684,687,690,693,696,699,702,705,708,711,714,717,720,723,726,729,732,735,738,741,744,747,750,753,756,759,762,765,768,771,774,777,780,783,786,789,792,795,798,801,804,807,810,813,816,819,822,825,828,831,834,837,840,843,846,849,852,855,858,861,864,867,870,873,876,879,882,885,888,891,894,897,900,903,906,909,912,915,918,921,924,927,930,933,936,939,942,945,948,951,954,957,960,963,966,969,972,975,978,981,984,987,990,993,996,999,1002,1005,1008,1011,1014,1017,1020,1023,1026,1029,1032,1035,1038,1041,1044,1047,1050,1053,1056,1059,1062,1065,1068,1071,1074,1077,1080,1083,1086,1089,1092,1095,1098,1101,1104,1107,1110,1113,1116,1119,1122,1125,1128,1131,1134,1137,1140,1143,1146,1149,1152,1155,1158,1161,1164,1167,1170,1173,1176,1179,1182,1185,1188,1191,1194,1197,1200,1203,1206,1209,1212,1215,1218,1221,1224,1227,1230,1233,1236,1239,1242,1245,1248,1251,1254,1257,1260,1263,1266,1269,1272,1275,1278,1281,1284,1287,1290,1293,1296,1299,1302,1305,1308,1311,1314,1317,1320,1323,1326,1329,1332,1335,1338,1341,1344,1347,1350,1353,1356,1359,1362,1365,1368,1371,1374,1377,1380,1383,1386,1389,1392,1395,1398,1401,1404,1407,1410,1413,1416,1419,1422,1425,1428,1431,1434,1437,1440,1443,1446,1449,1452,1455,1458,1461,1464,1467,1470,1473,1476,1479,1482,1485,1488,1491,1494,1497,1500],"tree_info":[0,1,2,0,1,2,0,1,2,0,1,2,0,1,2,0,1,2,0,1,2,0,1,2,0,1,2,0,1,2,0,1,2,0,1,2,0,1,2,0,1,2,0,1,2,0,1,2,0,1,2,0,1,2,0,1,2,0,1,2,0,1,2,0,1,2,0,1,2,0,1,2,0,1,2,0,1,2,0,1,2,0,1,2,0,1,2,0,1,2,0,1,2,0,1,2,0,1,2,0,1,2,0,1,2,0,1,2,0,1,2,0,1,2,0,1,2,0,1,2,0,1,2,0,1,2,0,1,2,0,1,2,0,1,2,0,1,2,0,1,2,0,1,2,0,1,2,0,1,2,0,1,2,0,1,2,0,1,2,0,1,2,0,1,2,0,1,2,0,1,2,0,1,2,0,1,2,0,1,2,0,1,2,0,1,2,0,1,2,0,1,2,0,1,2,0,1,2,0,1,2,0,1,2,0,1,2,0,1,2,0,1,2,0,1,2,0,1,2,0,1,2,0,1,2,0,1,2,0,1,2,0,1,2,0,1,2,0,1,2,0,1,2,0,1,2,0,1,2,0,1,2,0,1,2,0,1,2,0,1,2,0,1,2,0,1,2,0,1,2,0,1,2,0,1,2,0,1,2,0,1,2,0,1,2,0,1,2,0,1,2,0,1,2,0,1,2,0,1,2,0,1,2,0,1,2,0,1,2,0,1,2,0,1,2,0,1,2,0,1,2,0,1,2,0,1,2,0,1,2,0,1,2,0,1,2,0,1,2,0,1,2,0,1,2,0,1,2,0,1,2,0,1,2,0,1,2,0,1,2,0,1,2,0,1,2,0,1,2,0,1,2,0,1,2,0,1,2,0,1,2,0,1,2,0,1,2,0,1,2,0,1,2,0,1,2,0,1,2,0,1,2,0,1,2,0,1,2,0,1,2,0,1,2,0,1,2,0,1,2,0,1,2,0,1,2,0,1,2,0,1,2,0,1,2,0,1,2,0,1,2,0,1,2,0,1,2,0,1,2,0,1,2,0,1,2,0,1,2,0,1,2,0,1,2,0,1,2,0,1,2,0,1,2,0,1,2,0,1,2,0,1,2,0,1,2,0,1,2,0,1,2,0,1,2,0,1,2,0,1,2,0,1,2,0,1,2,0,1,2,0,1,2,0,1,2,0,1,2,0,1,2,0,1,2,0,1,2,0,1,2,0,1,2,0,1,2,0,1,2,0,1,2,0,1,2,0,1,2,0,1,2,0,1,2,0,1,2,0,1,2,0,1,2,0,1,2,0,1,2,0,1,2,0,1,2,0,1,2,0,1,2,0,1,2,0,1,2,0,1,2,0,1,2,0,1,2,0,1,2,0,1,2,0,1,2,0,1,2,0,1,2,0,1,2,0,1,2,0,1,2,0,1,2,0,1,2,0,1,2,0,1,2,0,1,2,0,1,2,0,1,2,0,1,2,0,1,2,0,1,2,0,1,2,0,1,2,0,1,2,0,1,2,0,1,2,0,1,2,0,1,2,0,1,2,0,1,2,0,1,2,0,1,2,0,1,2,0,1,2,0,1,2,0,1,2,0,1,2,0,1,2,0,1,2,0,1,2,0,1,2,0,1,2,0,1,2,0,1,2,0,1,2,0,1,2,0,1,2,0,1,2,0,1,2,0,1,2,0,1,2,0,1,2,0,1,2,0,1,2,0,1,2,0,1,2,0,1,2,0,1,2,0,1,2,0,1,2,0,1,2,0,1,2,0,1,2,0,1,2,0,1,2,0,1,2,0,1,2,0,1,2,0,1,2,0,1,2,0,1,2,0,1,2,0,1,2,0,1,2,0,1,2,0,1,2,0,1,2,0,1,2,0,1,2,0,1,2,0,1,2,0,1,2,0,1,2,0,1,2,0,1,2,0,1,2,0,1,2,0,1,2,0,1,2,0,1,2,0,1,2,0,1,2,0,1,2,0,1,2,0,1,2,0,1,2,0,1,2,0,1,2,0,1,2,0,1,2,0,1,2,0,1,2,0,1,2,0,1,2,0,1,2,0,1,2,0,1,2,0,1,2,0,1,2,0,1,2,0,1,2,0,1,2,0,1,2,0,1,2,0,1,2,0,1,2,0,1,2,0,1,2,0,1,2,0,1,2,0,1,2,0,1,2,0,1,2,0,1,2,0,1,2,0,1,2,0,1,2,0,1,2,0,1,2,0,1,2,0,1,2,0,1,2,0,1,2,0,1,2,0,1,2,0,1,2,0,1,2,0,1,2,0,1,2,0,1,2,0,1,2,0,1,2,0,1,2,0,1,2,0,1,2,0,1,2,0,1,2,0,1,2,0,1,2,0,1,2,0,1,2,0,1,2,0,1,2,0,1,2,0,1,2,0,1,2,0,1,2,0,1,2,0,1,2,0,1,2,0,1,2,0,1,2,0,1,2,0,1,2,0,1,2,0,1,2,0,1,2,0,1,2,0,1,2,0,1,2,0,1,2,0,1,2,0,1,2,0,1,2,0,1,2,0,1,2,0,1,2,0,1,2,0,1,2,0,1,2,0,1,2,0,1,2,0,1,2,0,1,2,0,1,2,0,1,2,0,1,2,0,1,2,0,1,2,0,1,2,0,1,2,0,1,2,0,1,2,0,1,2,0,1,2,0,1,2,0,1,2,0,1,2,0,1,2,0,1,2,0,1,2,0,1,2,0,1,2,0,1,2,0,1,2,0,1,2,0,1,2,0,1,2,0,1,2,0,1,2,0,1,2,0,1,2,0,1,2,0,1,2,0,1,2,0,1,2,0,1,2,0,1,2,0,1,2,0,1,2,0,1,2,0,1,2,0,1,2,0,1,2,0,1,2,0,1,2,0,1,2,0,1,2,0,1,2,0,1,2,0,1,2,0,1,2,0,1,2,0,1,2,0,1,2,0,1,2,0,1,2,0,1,2,0,1,2,0,1,2,0,1,2,0,1,2,0,1,2,0,1,2,0,1,2,0,1,2,0,1,2,0,1,2,0,1,2,0,1,2,0,1,2,0,1,2,0,1,2,0,1,2,0,1,2,0,1,2,0,1,2,0,1,2,0,1,2,0,1,2,0,1,2,0,1,2,0,1,2,0,1,2,0,1,2,0,1,2,0,1,2,0,1,2,0,1,2,0,1,2,0,1,2,0,1,2,0,1,2,0,1,2,0,1,2,0,1,2,0,1,2,0,1,2,0,1,2,0,1,2,0,1,2,0,1,2,0,1,2,0,1,2,0,1,2,0,1,2,0,1,2,0,1,2,0,1,2,0,1,2,0,1,2,0,1,2,0,1,2,0,1,2,0,1,2,0,1,2,0,1,2,0,1,2,0,1,2,0,1,2,0,1,2,0,1,2,0,1,2,0,1,2],"trees":[{"base_weights":[5.0755525E-1,1.868492E0,3.9692938E-1,3.0068111E0,1.575791E0,1.7177517E0,3.1869912E-1,2.3056067E1,2.9975119E0,1.846705E1,1.5745084E0,1.456728E2,1.7148422E0,1.487547E0,2.567765E-1,1.631705E1,2.9931264E0,1.836705E1,1.573233E0,2.3456068E1,8.2273334E-1,1.996705E1,1.7132387E0,1.5314943E2,1.4825001E0,1.5411587E0,2.1746302E-1,7.925575E1,2.9889483E0,1.586705E1,1.5721318E0,2.5797668E0,1.3666003E0,1.0057492E0,2.6700575E1,2.3115764E0,1.1821016E0,2.6917051E1,1.5366131E0,1.5576457E0,1.9060884E-1,1.1704995E-1,1.04894E1,3.6720002E-1,2.6471254E-1,4.004929E-1,1.5149924E-1,3.3952472E-1,2.3272601E-1,1.3647373E-1,1.656705E1,2.1704996E-1,-1.06000705E-2,2.3064172E-1,1.456705E1,9.767051E0,1.180846E-1,2.3688595E-1,1.2431598E-1,1.786705E1,1.5529513E-1,8.9725226E-2,1.5069469E-2],"categories":[],"categories_nodes":[],"categories_segments":[],"categories_sizes":[],"default_left":[0,0,0,0,0,0,0,0,0,0,0,0,0,0,0,0,0,0,0,0,0,0,0,0,0,0,0,0,0,0,0,0,1,0,0,1,0,0,0,0,0,0,0,0,0,0,0,0,0,0,0,0,0,0,0,0,0,0,0,0,0,0,0],"id":0,"left_children":[1,3,5,7,9,11,13,-1,15,-1,17,19,21,23,25,-1,27,-1,29,-1,-1,-1,31,33,35,37,39,41,43,-1,45,47,49,51,-1,53,55,-1,57,59,61,-1,-1,-1,-1,-1,-1,-1,-1,-1,-1,-1,-1,-1,-1,-1,-1,-1,-1,-1,-1,-1,-1],"loss_changes":[7.219684E5,1.2010825E5,4.582495E5,1.5533969E5,6.704531E4,1.03614375E5,3.0304047E5,0E0,5.130325E4,0E0,6.6315875E4,5.915636E4,7.8370625E4,1.6101247E5,2.0077522E5,0E0,2.3256188E4,0E0,4.9357E4,0E0,0E0,0E0,7.448244E4,1.2098908E5,5.2459312E4,1.43251E5,1.3885322E5,7.8850977E3,1.720475E4,0E0,3.9856062E4,1.4581906E4,5.3990312E4,5.4097185E0,0E0,4.1099688E4,1.861886E4,0E0,2.8838406E4,6.273717E4,1.0668217E5,0E0,0E0,0E0,0E0,0E0,0E0,0E0,0E0,0E0,0E0,0E0,0E0,0E0,0E0,0E0,0E0,0E0,0E0,0E0,0E0,0E0,0E0],"parents":[2147483647,0,0,1,1,2,2,3,3,4,4,5,5,6,6,8,8,10,10,11,11,12,12,13,13,14,14,16,16,18,18,22,22,23,23,24,24,25,25,26,26,27,27,28,28,30,30,31,31,32,32,33,33,35,35,36,36,38,38,39,39,40,40],"right_children":[2,4,6,8,10,12,14,-1,16,-1,18,20,22,24,26,-1,28,-1,30,-1,-1,-1,32,34,36,38,40,42,44,-1,46,48,50,52,-1,54,56,-1,58,60,62,-1,-1,-1,-1,-1,-1,-1,-1,-1,-1,-1,-1,-1,-1,-1,-1,-1,-1,-1,-1,-1,-1],"split_conditions":[4.819062E-2,2.8780507E-2,4.8191145E-2,1.434259E-1,1.637354E-1,3.3909443E-1,5.106176E-2,2.3056067E1,1.432061E-1,1.846705E1,4.4427997E-1,8.700247E-2,5.65359E-1,2.5502875E-1,4.6864405E-2,1.631705E1,8.250961E-2,1.836705E1,2.9358208E-1,2.3456068E1,8.2273334E-1,1.996705E1,3.222426E-2,7.197988E-2,3.383279E-2,3.043344E-1,5.2881435E-2,5.0699677E-2,2.2622678E-2,1.586705E1,3.1652164E-2,2.413802E-2,1.8171288E-1,1.03056915E-1,2.6700575E1,1.4530632E-1,9.323367E-2,2.6917051E1,3.1636905E-2,4.3406826E-1,4.8958674E-2,1.1704995E-1,1.04894E1,3.6720002E-1,2.6471254E-1,4.004929E-1,1.5149924E-1,3.3952472E-1,2.3272601E-1,1.3647373E-1,1.656705E1,2.1704996E-1,-1.06000705E-2,2.3064172E-1,1.456705E1,9.767051E0,1.180846E-1,2.3688595E-1,1.2431598E-1,1.786705E1,1.5529513E-1,8.9725226E-2,1.5069469E-2],"split_indices":[1292656,1292656,1066086,361590,413721,1098545,798422,0,492835,0,368474,129516,218476,1098545,1860446,0,1862716,0,485598,0,0,0,1066086,1226509,798422,147222,127671,62285,1292656,0,127671,1066086,444642,62975,0,224870,147969,0,1860446,197349,1401323,0,0,0,0,0,0,0,0,0,0,0,0,0,0,0,0,0,0,0,0,0,0],"split_type":[0,0,0,0,0,0,0,0,0,0,0,0,0,0,0,0,0,0,0,0,0,0,0,0,0,0,0,0,0,0,0,0,0,0,0,0,0,0,0,0,0,0,0,0,0,0,0,0,0,0,0,0,0,0,0,0,0,0,0,0,0,0,0],"sum_hessian":[4.79539E6,3.60496E5,4.434894E6,7.3734E4,2.86762E5,2.47983E5,4.186911E6,2E0,7.3732E4,1E0,2.86761E5,4E0,2.47979E5,2.10651E5,3.97626E6,1E0,7.3731E4,1E0,2.8676E5,2E0,2E0,1E0,2.47978E5,6E0,2.10645E5,1.18093E5,3.858167E6,3E0,7.3728E4,1E0,2.86759E5,7.0853E4,1.77125E5,3E0,3E0,5.6022E4,1.54623E5,1E0,1.18092E5,7.5789E4,3.782378E6,1E0,2E0,2.4587E4,4.9141E4,6.579E3,2.8018E5,1.6749E4,5.4104E4,1.77124E5,1E0,1E0,2E0,5.6021E4,1E0,1E0,1.54622E5,3.0783E4,8.7309E4,1E0,7.5788E4,2.02221E5,3.580157E6],"tree_param":{"num_deleted":"0","num_feature":"2086590","num_nodes":"63","size_leaf_vector":"1"}},{"base_weights":[-3.380275E-1,1.6761824E-1,-3.7694624E-1,1.131705E1,1.669583E-1,1.7292532E-1,-4.011225E-1,5.167058E-1,3.065609E-2,7.46705E0,1.7212987E-1,1.626705E1,-4.011989E-1,6.6670504E0,5.1532376E-1,2.993304E-2,8.91705E0,6.71705E0,1.714144E-1,8.214942E0,-4.013343E-1,6.46705E0,5.1398325E-1,8.31705E0,2.925864E-2,4.4261307E-1,2.4494862E-2,1.0633649E-1,-4.179227E-1,6.26705E0,5.126844E-2,6.1560664E0,2.850998E-3,4.4086933E-2,5.76705E0,4.8670497E0,2.3694772E-3,9.4894E0,1.0422861E-2,1.2767051E1,-4.1798465E-2],"categories":[],"categories_nodes":[],"categories_segments":[],"categories_sizes":[],"default_left":[0,0,0,0,0,0,0,0,1,0,0,0,0,0,0,0,0,0,0,0,0,0,0,0,0,1,0,0,0,0,0,0,0,0,0,0,0,0,0,0,0],"id":1,"left_children":[1,3,5,-1,7,9,11,13,15,-1,17,-1,19,-1,21,23,-1,-1,25,-1,27,-1,29,-1,31,33,35,37,39,-1,-1,-1,-1,-1,-1,-1,-1,-1,-1,-1,-1],"loss_changes":[9.4369E4,2.5539422E4,5.9193188E4,0E0,1.6337672E4,1.1099865E4,5.3184562E4,8.752568E3,1.5891952E4,0E0,8.977631E3,0E0,4.7702188E4,0E0,8.231678E3,1.382482E4,0E0,0E0,7.471807E3,0E0,3.591875E4,0E0,7.7267656E3,0E0,1.1358479E4,6.5500664E3,4.732945E3,2.6954693E4,3.2813125E4,0E0,0E0,0E0,0E0,0E0,0E0,0E0,0E0,0E0,0E0,0E0,0E0],"parents":[2147483647,0,0,1,1,2,2,4,4,5,5,6,6,7,7,8,8,10,10,12,12,14,14,15,15,18,18,20,20,22,22,24,24,25,25,26,26,27,27,28,28],"right_children":[2,4,6,-1,8,10,12,14,16,-1,18,-1,20,-1,22,24,-1,-1,26,-1,28,-1,30,-1,32,34,36,38,40,-1,-1,-1,-1,-1,-1,-1,-1,-1,-1,-1,-1],"split_conditions":[4.7153257E-2,6.370218E-2,4.284663E-2,1.131705E1,3.0883761E-2,2.2442202E-1,1.7346422E-1,1.6506554E-1,2.124924E-1,7.46705E0,1.6010247E-1,1.626705E1,7.770096E-2,6.6670504E0,3.056295E-1,7.8883804E-2,8.91705E0,6.71705E0,3.126375E-2,8.214942E0,4.3603316E-2,6.46705E0,1.3777626E-1,8.31705E0,1.4408617E-1,1.613311E-1,2.2199912E-1,1.2382445E-1,7.3067784E-1,6.26705E0,5.126844E-2,6.1560664E0,2.850998E-3,4.4086933E-2,5.76705E0,4.8670497E0,2.3694772E-3,9.4894E0,1.0422861E-2,1.2767051E1,-4.1798465E-2],"split_indices":[1066086,46232,1292656,0,1066086,4156,653927,46799,1841969,0,107365,0,628977,0,261045,98110,0,0,1292656,0,798422,0,1804384,0,1853624,498881,101184,748112,1300583,0,0,0,0,0,0,0,0,0,0,0,0],"split_type":[0,0,0,0,0,0,0,0,0,0,0,0,0,0,0,0,0,0,0,0,0,0,0,0,0,0,0,0,0,0,0,0,0,0,0,0,0,0,0,0,0],"sum_hessian":[4.79539E6,3.42715E5,4.452675E6,1E0,3.42714E5,1.87526E5,4.265149E6,9.6106E4,2.46608E5,1E0,1.87525E5,1E0,4.265148E6,1E0,9.6105E4,2.46607E5,1E0,1E0,1.87524E5,6E0,4.265142E6,1E0,9.6104E4,1E0,2.46606E5,6.5892E4,1.21632E5,1.34956E5,4.130186E6,1E0,9.6103E4,2E0,2.46604E5,6.5891E4,1E0,1E0,1.21631E5,2E0,1.34954E5,1E0,4.130185E6],"tree_param":{"num_deleted":"0","num_feature":"2086590","num_nodes":"41","size_leaf_vector":"1"}},{"base_weights":[-1.695278E-1,7.699234E1,-1.7023577E-1,2.5807281E1,5.2432476E1,4.5066273E-1,-2.2054704E-1,2.7137083E1,2.240728E2,1.996705E1,4.4955298E-1,4.5494103E-1,-2.5466377E-1,7.7427344E0,2.37894E1,2.8025574E1,-3.2950055E-2,4.4852668E-1,1.846705E1,1.006705E1,4.539991E-1,3.5091814E-1,-2.804184E-1,9.865927E-1,7.7227335E0,1.7559344E0,3.996495E-1,4.5306188E-1,1.0017051E1,9.217051E0,3.4985003E-1,1.786705E1,-2.8050667E-1,6.227333E-1,4.2963233E-2,5.656067E0,1.7431037E-1,8.0560665E0,3.989543E-2,9.767051E0,4.5214806E-2,8.717051E0,3.4883995E-2,8.972086E0,-2.8066216E-2],"categories":[],"categories_nodes":[],"categories_segments":[],"categories_sizes":[],"default_left":[0,0,0,0,1,0,0,1,1,0,1,0,0,1,0,0,0,0,0,0,1,0,0,0,0,0,0,0,0,0,0,0,0,0,0,0,0,0,0,0,0,0,0,0,0],"id":2,"left_children":[1,3,5,-1,7,9,11,13,15,-1,17,19,21,23,-1,-1,-1,25,-1,-1,27,29,31,33,-1,35,37,39,-1,-1,41,-1,43,-1,-1,-1,-1,-1,-1,-1,-1,-1,-1,-1,-1],"loss_changes":[2.6197634E5,1.8215033E5,1.4979812E5,0E0,1.6758767E5,7.9377336E4,1.022275E5,1.4530781E5,6.313028E4,0E0,6.787489E4,2.00863E4,6.585866E4,1.5885032E4,0E0,0E0,0E0,2.2968305E4,0E0,0E0,1.9886738E4,1.6861744E4,6.4046812E4,9.072885E1,0E0,9.009727E3,1.9277379E4,1.8902438E4,0E0,0E0,1.5075705E4,0E0,5.670172E4,0E0,0E0,0E0,0E0,0E0,0E0,0E0,0E0,0E0,0E0,0E0,0E0],"parents":[2147483647,0,0,1,1,2,2,4,4,5,5,6,6,7,7,8,8,10,10,11,11,12,12,13,13,17,17,20,20,21,21,22,22,23,23,25,25,26,26,27,27,30,30,32,32],"right_children":[2,4,6,-1,8,10,12,14,16,-1,18,20,22,24,-1,-1,-1,26,-1,-1,28,30,32,34,-1,36,38,40,-1,-1,42,-1,44,-1,-1,-1,-1,-1,-1,-1,-1,-1,-1,-1,-1],"split_conditions":[3.5251024E-1,1.1915857E-1,4.8191145E-2,2.5807281E1,5.021921E-2,5.65359E-1,5.368993E-2,7.362898E-2,1.362409E-1,1.996705E1,2.3020244E-1,2.2442202E-1,4.6653725E-2,4.51249E-2,2.37894E1,2.8025574E1,-3.2950055E-2,3.8025994E-2,1.846705E1,1.006705E1,3.87393E-1,5.547512E-1,5.100032E-1,4.0186092E-2,7.7227335E0,4.2314924E-2,1.4408617E-1,9.323367E-2,1.0017051E1,9.217051E0,1.6010247E-1,1.786705E1,7.770096E-2,6.227333E-1,4.2963233E-2,5.656067E0,1.7431037E-1,8.0560665E0,3.989543E-2,9.767051E0,4.5214806E-2,8.717051E0,3.4883995E-2,8.972086E0,-2.8066216E-2],"split_indices":[1098545,1372688,1066086,0,617611,218476,127671,664224,2316,0,400831,4156,1292656,87883,0,0,0,530175,0,0,422998,432240,1240872,193168,0,1111137,1853624,147969,0,0,107365,0,628977,0,0,0,0,0,0,0,0,0,0,0,0],"split_type":[0,0,0,0,0,0,0,0,0,0,0,0,0,0,0,0,0,0,0,0,0,0,0,0,0,0,0,0,0,0,0,0,0,0,0,0,0,0,0,0,0,0,0,0,0],"sum_hessian":[4.79539E6,4.3E1,4.795347E6,4E0,3.9E1,3.5944E5,4.435907E6,3.5E1,4E0,1E0,3.59439E5,2.13271E5,4.222636E6,3.3E1,2E0,3E0,1E0,3.59438E5,1E0,1E0,2.1327E5,1.72257E5,4.050379E6,3.1E1,2E0,1.2952E4,3.46486E5,2.13269E5,1E0,1E0,1.72256E5,1E0,4.050378E6,2E0,2.9E1,2E0,1.295E4,2E0,3.46484E5,1E0,2.13268E5,1E0,1.72255E5,6E0,4.050372E6],"tree_param":{"num_deleted":"0","num_feature":"2086590","num_nodes":"45","size_leaf_vector":"1"}},{"base_weights":[4.5685443E-1,1.7309575E0,3.6087435E-1,2.4970057E0,1.3752501E0,1.6461011E0,2.9515454E-1,1.6168985E2,2.4910042E0,1.7448698E1,1.373735E0,1.3596127E2,1.6429979E0,1.2037795E0,2.2951859E-1,2.1518995E1,5.9474986E-2,1.5501198E1,2.4881172E0,1.5073697E1,1.3724269E0,2.1892328E1,7.678844E-1,1.8968699E1,1.6412566E0,1.4167834E2,1.2003348E0,1.2625518E0,1.8947147E-1,3.3164458E0,2.239467E0,3.8895211E0,1.3124576E0,2.4643567E0,1.3461727E0,9.5678675E-1,2.4698032E1,1.9926997E0,9.3431276E-1,2.5571198E1,1.2590969E0,1.2378116E0,1.5856165E-1,7.398179E0,3.304815E-1,9.403815E0,2.2371987E-1,7.032988E0,3.8389775E-1,3.7870738E-1,1.2760656E-1,8.505414E0,2.4614282E-1,1.1760226E1,1.3447082E-1,2.0619746E-1,-9.893398E-3,1.9888747E-1,1.3838698E1,2.8361103E-1,9.017921E-2,1.2567292E-1,1.75437E1,1.6166296E1,1.234859E-1,1.2437611E1,1.5829302E-2],"categories":[],"categories_nodes":[],"categories_segments":[],"categories_sizes":[],"default_left":[0,0,0,0,0,0,0,0,0,0,0,0,0,0,0,0,0,0,0,0,0,0,0,0,0,0,0,0,0,0,0,0,0,0,0,0,0,1,0,0,1,0,0,0,0,0,0,0,0,0,0,0,0,0,0,0,0,0,0,0,0,0,0,0,0,0,0],"id":3,"left_children":[1,3,5,7,9,11,13,15,17,-1,19,21,23,25,27,-1,-1,-1,29,-1,31,-1,-1,-1,33,35,37,39,41,43,45,47,49,51,53,55,-1,57,59,-1,61,63,65,-1,-1,-1,-1,-1,-1,-1,-1,-1,-1,-1,-1,-1,-1,-1,-1,-1,-1,-1,-1,-1,-1,-1,-1],"loss_changes":[5.8642056E5,9.153569E4,3.7666694E5,1.0136706E5,5.9934E4,9.020219E4,2.5301675E5,3.4346438E4,4.652E4,0E0,4.461725E4,5.1531758E4,7.071906E4,1.3813369E5,1.6368847E5,0E0,0E0,0E0,2.1931875E4,0E0,3.462425E4,0E0,0E0,0E0,5.2686625E4,1.03491484E5,6.024347E4,1.2948917E5,1.2342783E5,1.9966656E4,1.6849406E4,1.7655781E4,2.01745E4,1.36365625E4,2.70295E4,4.871078E0,0E0,3.7203875E4,1.3231375E4,0E0,6.0675094E4,5.1471875E4,1.2344023E5,0E0,0E0,0E0,0E0,0E0,0E0,0E0,0E0,0E0,0E0,0E0,0E0,0E0,0E0,0E0,0E0,0E0,0E0,0E0,0E0,0E0,0E0,0E0,0E0],"parents":[2147483647,0,0,1,1,2,2,3,3,4,4,5,5,6,6,7,7,8,8,10,10,11,11,12,12,13,13,14,14,18,18,20,20,24,24,25,25,26,26,27,27,28,28,29,29,30,30,31,31,32,32,33,33,34,34,35,35,37,37,38,38,40,40,41,41,42,42],"right_children":[2,4,6,8,10,12,14,16,18,-1,20,22,24,26,28,-1,-1,-1,30,-1,32,-1,-1,-1,34,36,38,40,42,44,46,48,50,52,54,56,-1,58,60,-1,62,64,66,-1,-1,-1,-1,-1,-1,-1,-1,-1,-1,-1,-1,-1,-1,-1,-1,-1,-1,-1,-1,-1,-1,-1,-1],"split_conditions":[4.6653725E-2,3.1582523E-2,4.560825E-2,1.434259E-1,4.4427997E-1,3.3909443E-1,5.5600088E-2,1.3559262E-1,1.432061E-1,1.7448698E1,2.9358208E-1,8.700247E-2,5.65359E-1,2.5502875E-1,4.8823785E-2,2.1518995E1,5.9474986E-2,1.5501198E1,2.2622678E-2,1.5073697E1,3.0883761E-2,2.1892328E1,7.678844E-1,1.8968699E1,3.052803E-2,7.197988E-2,3.59273E-2,3.043344E-1,4.278717E-2,8.250961E-2,1.6010247E-1,6.0225107E-2,4.452123E-2,1.5689501E-1,2.964367E-1,1.03056915E-1,2.4698032E1,4.5624164E-1,4.199523E-2,2.5571198E1,2.3020244E-1,2.8237322E-1,2.656164E-1,7.398179E0,3.304815E-1,9.403815E0,2.2371987E-1,7.032988E0,3.8389775E-1,3.7870738E-1,1.2760656E-1,8.505414E0,2.4614282E-1,1.1760226E1,1.3447082E-1,2.0619746E-1,-9.893398E-3,1.9888747E-1,1.3838698E1,2.8361103E-1,9.017921E-2,1.2567292E-1,1.75437E1,1.6166296E1,1.234859E-1,1.2437611E1,1.5829302E-2],"split_indices":[1292656,1292656,1066086,361590,368474,1098545,798422,17684,492835,0,485598,129516,218476,1098545,1860446,0,0,0,1292656,0,1066086,0,0,0,1066086,1226509,798422,147222,814966,1862716,107365,808500,1619493,351583,334630,62975,0,270967,660518,0,400831,304402,1098545,0,0,0,0,0,0,0,0,0,0,0,0,0,0,0,0,0,0,0,0,0,0,0,0],"split_type":[0,0,0,0,0,0,0,0,0,0,0,0,0,0,0,0,0,0,0,0,0,0,0,0,0,0,0,0,0,0,0,0,0,0,0,0,0,0,0,0,0,0,0,0,0,0,0,0,0,0,0,0,0,0,0,0,0,0,0,0,0,0,0,0,0,0,0],"sum_hessian":[4.79539E6,3.35936E5,4.459454E6,1.06523E5,2.29413E5,2.16939E5,4.242515E6,3E0,1.0652E5,1E0,2.29412E5,4E0,2.16935E5,2.85817E5,3.956698E6,2E0,1E0,1E0,1.06519E5,1E0,2.29411E5,2E0,2E0,1E0,2.16934E5,6E0,2.85811E5,1.47662E5,3.809036E6,2.459E4,8.1929E4,5.337E3,2.24074E5,5.7246E4,1.59688E5,3E0,3E0,7.1836E4,2.13975E5,1E0,1.47661E5,1.0909E5,3.699946E6,3E0,2.4587E4,1E0,8.1928E4,3E0,5.334E3,3.246E3,2.20828E5,1E0,5.7245E4,1E0,1.59687E5,1E0,2E0,7.1835E4,1E0,3.596E3,2.10379E5,1.4766E5,1E0,1E0,1.09089E5,7E0,3.699939E6],"tree_param":{"num_deleted":"0","num_feature":"2086590","num_nodes":"67","size_leaf_vector":"1"}},{"base_weights":[-3.0419853E-1,1.0800194E-1,-3.4312928E-1,1.0751198E1,1.074826E-1,7.8417815E-2,-3.689082E-1,4.3897626E-1,-1.055631E-2,7.0936975E0,7.7856265E-2,1.5453697E1,-3.6898315E-1,6.333698E0,4.3781453E-1,-1.1111543E-2,8.471198E0,3.7630394E-1,-3.3719826E-2,7.5108047E0,-3.69111E-1,6.1436973E0,4.3668774E-1,7.901198E0,-1.162942E-2,6.3811975E0,3.7445202E-1,5.11914E0,-3.4277063E-2,1.11972354E-1,-3.8452893E-1,6.014487E0,4.3558475E-2,5.745662E0,-1.2194352E-3,3.5437531E0,3.7189495E-2,4.6236978E0,-3.4780395E-3,7.91914E0,1.1073798E-2,1.2128697E1,-3.845897E-2],"categories":[],"categories_nodes":[],"categories_segments":[],"categories_sizes":[],"default_left":[0,0,0,0,0,0,0,0,1,0,0,0,0,0,0,0,0,0,0,0,0,0,0,0,0,0,0,0,0,0,0,0,0,0,0,0,0,0,0,0,0,0,0],"id":4,"left_children":[1,3,5,-1,7,9,11,13,15,-1,17,-1,19,-1,21,23,-1,25,27,-1,29,-1,31,-1,33,-1,35,-1,37,39,41,-1,-1,-1,-1,-1,-1,-1,-1,-1,-1,-1,-1],"loss_changes":[7.695297E4,2.3071326E4,4.7614656E4,0E0,1.6192509E4,1.0041943E4,4.7991562E4,7.9122695E3,1.4355908E4,0E0,8.408335E3,0E0,3.9877438E4,0E0,7.441742E3,1.2489379E4,0E0,8.0482627E3,5.2480815E3,0E0,3.06265E4,0E0,7.130074E3,0E0,9.907898E3,0E0,6.1474062E3,0E0,4.282103E3,1.2507294E4,2.960775E4,0E0,0E0,0E0,0E0,0E0,0E0,0E0,0E0,0E0,0E0,0E0,0E0],"parents":[2147483647,0,0,1,1,2,2,4,4,5,5,6,6,7,7,8,8,10,10,12,12,14,14,15,15,17,17,18,18,20,20,22,22,24,24,26,26,28,28,29,29,30,30],"right_children":[2,4,6,-1,8,10,12,14,16,-1,18,-1,20,-1,22,24,-1,26,28,-1,30,-1,32,-1,34,-1,36,-1,38,40,42,-1,-1,-1,-1,-1,-1,-1,-1,-1,-1,-1,-1],"split_conditions":[5.163915E-2,6.370218E-2,4.871669E-2,1.0751198E1,3.1893265E-2,2.2442202E-1,1.7346422E-1,1.6506554E-1,2.124924E-1,7.0936975E0,3.1902805E-2,1.5453697E1,7.770096E-2,6.333698E0,3.056295E-1,7.8883804E-2,8.471198E0,1.6010247E-1,5.547512E-1,7.5108047E0,3.8338155E-2,6.1436973E0,3.812024E-1,7.901198E0,1.4408617E-1,6.3811975E0,6.814661E-2,5.11914E0,2.2199912E-1,3.1255805E-1,7.3067784E-1,6.014487E0,4.3558475E-2,5.745662E0,-1.2194352E-3,3.5437531E0,3.7189495E-2,4.6236978E0,-3.4780395E-3,7.91914E0,1.1073798E-2,1.2128697E1,-3.845897E-2],"split_indices":[1066086,46232,1292656,0,1066086,4156,653927,46799,1841969,0,1292656,0,628977,0,261045,98110,0,107365,432240,0,814966,0,823820,0,1853624,0,437049,0,101184,1585757,1300583,0,0,0,0,0,0,0,0,0,0,0,0],"split_type":[0,0,0,0,0,0,0,0,0,0,0,0,0,0,0,0,0,0,0,0,0,0,0,0,0,0,0,0,0,0,0,0,0,0,0,0,0,0,0,0,0,0,0],"sum_hessian":[4.79539E6,4.13822E5,4.381568E6,1E0,4.13821E5,2.52505E5,4.129063E6,1.08661E5,3.0516E5,1E0,2.52504E5,1E0,4.129062E6,1E0,1.0866E5,3.05159E5,1E0,6.8711E4,1.83793E5,6E0,4.129056E6,1E0,1.08659E5,1E0,3.05158E5,1E0,6.871E4,1E0,1.83792E5,1.2822E5,4.000836E6,1E0,1.08658E5,2E0,3.05156E5,4E0,6.8706E4,1E0,1.83791E5,1E0,1.28219E5,1E0,4.000835E6],"tree_param":{"num_deleted":"0","num_feature":"2086590","num_nodes":"43","size_leaf_vector":"1"}},{"base_weights":[-1.525306E-1,7.124715E1,-1.531857E-1,2.3742697E1,4.869349E1,9.4455236E-1,-1.7828336E-1,2.5317204E1,2.0726405E2,3.320556E1,9.379207E-1,3.4858614E-1,-2.177637E-1,7.2151794E0,2.2203442E1,2.5923658E1,-3.1302553E-2,7.2639246E0,9.960559E0,1.0318454E1,9.360037E-1,1.8968699E1,3.4742638E-1,3.9355394E-1,-2.4378122E-1,9.0873647E-1,7.2078843E0,1.8981279E0,1.8377147E0,9.563698E0,9.342275E-1,3.4635383E-1,1.75437E1,3.9214584E-1,5.045341E0,1.6973698E1,-2.4386244E-1,5.812177E-1,3.881012E-2,9.557989E-3,3.9914882E-1,7.518996E0,9.3214005E-2,6.748983E-2,1.9628054E-2,7.06479E0,3.913544E-2,8.20305E0,-2.4400005E-2],"categories":[],"categories_nodes":[],"categories_segments":[],"categories_sizes":[],"default_left":[0,0,0,0,1,0,0,1,1,0,0,0,0,1,0,0,0,0,0,0,0,0,1,1,0,0,0,0,1,0,0,0,0,0,0,0,0,0,0,0,0,0,0,0,0,0,0,0,0],"id":5,"left_children":[1,3,5,-1,7,9,11,13,15,17,19,21,23,25,-1,-1,-1,-1,27,-1,29,-1,31,33,35,37,-1,-1,39,-1,41,43,-1,45,-1,-1,47,-1,-1,-1,-1,-1,-1,-1,-1,-1,-1,-1,-1],"loss_changes":[2.2431025E5,1.533492E5,1.3211525E5,0E0,1.4302427E5,2.2900828E4,9.7518484E4,1.2659324E5,5.402267E4,1.9442463E4,2.090825E4,7.1698375E4,6.9367266E4,1.3842504E4,0E0,0E0,0E0,0E0,1.0642264E3,0E0,1.7936008E4,0E0,6.1312957E4,1.2530145E4,5.778686E4,7.9437225E1,0E0,0E0,3.338797E1,0E0,1.6541336E4,1.6113527E4,0E0,9.871697E3,0E0,0E0,4.7383516E4,0E0,0E0,0E0,0E0,0E0,0E0,0E0,0E0,0E0,0E0,0E0,0E0],"parents":[2147483647,0,0,1,1,2,2,4,4,5,5,6,6,7,7,8,8,9,9,10,10,11,11,12,12,13,13,18,18,20,20,22,22,23,23,24,24,25,25,28,28,30,30,31,31,33,33,36,36],"right_children":[2,4,6,-1,8,10,12,14,16,18,20,22,24,26,-1,-1,-1,-1,28,-1,30,-1,32,34,36,38,-1,-1,40,-1,42,44,-1,46,-1,-1,48,-1,-1,-1,-1,-1,-1,-1,-1,-1,-1,-1,-1],"split_conditions":[3.5251024E-1,1.1915857E-1,5.216619E-2,2.3742697E1,5.021921E-2,1.4137015E-1,4.278717E-2,7.362898E-2,1.362409E-1,9.597826E-2,3.1255805E-1,5.65359E-1,4.0880356E-2,4.51249E-2,2.2203442E1,2.5923658E1,-3.1302553E-2,7.2639246E0,7.008598E-2,1.0318454E1,2.2442202E-1,1.8968699E1,2.3020244E-1,3.6296043E-1,5.100032E-1,4.0186092E-2,7.2078843E0,1.8981279E0,4.6294827E-2,9.563698E0,1.4408617E-1,2.9070958E-2,1.75437E1,1.0710464E-1,5.045341E0,1.6973698E1,7.770096E-2,5.812177E-1,3.881012E-2,9.557989E-3,3.9914882E-1,7.518996E0,9.3214005E-2,6.748983E-2,1.9628054E-2,7.06479E0,3.913544E-2,8.20305E0,-2.4400005E-2],"split_indices":[1098545,1372688,1092618,0,617611,100432,814966,664224,2316,28400,1585757,218476,830763,87883,0,0,0,0,1415392,0,4156,0,400831,788783,1240872,193168,0,0,791666,0,1853624,814966,0,1230590,0,0,628977,0,0,0,0,0,0,0,0,0,0,0,0],"split_type":[0,0,0,0,0,0,0,0,0,0,0,0,0,0,0,0,0,0,0,0,0,0,0,0,0,0,0,0,0,0,0,0,0,0,0,0,0,0,0,0,0,0,0,0,0,0,0,0,0],"sum_hessian":[4.79539E6,4.3E1,4.795347E6,4E0,3.9E1,1.07185E5,4.688162E6,3.5E1,4E0,2.1E1,1.07164E5,3.26812E5,4.36135E6,3.3E1,2E0,3E0,1E0,7E0,1.4E1,1E0,1.07163E5,1E0,3.26811E5,1.7804E5,4.18331E6,3.1E1,2E0,6E0,8E0,1E0,1.07162E5,3.2681E5,1E0,1.78036E5,4E0,1E0,4.183309E6,2E0,2.9E1,5E0,3E0,2E0,1.0716E5,1.02472E5,2.24338E5,1E0,1.78035E5,6E0,4.183303E6],"tree_param":{"num_deleted":"0","num_feature":"2086590","num_nodes":"49","size_leaf_vector":"1"}},{"base_weights":[4.1122496E-1,1.3809248E0,3.076224E-1,2.1733708E0,1.0943955E0,1.2562667E0,2.370875E-1,1.5091547E2,2.1685128E0,1.0916278E0,1.3535478E2,1.8020262E1,1.255069E0,1.344303E0,1.9379476E-1,2.0084394E1,5.6501236E-2,1.4726138E1,2.1661344E0,1.6666513E1,1.0906504E0,2.3560156E1,1.269309E0,1.9753691E0,9.911345E-1,1.519712E1,1.3423089E0,1.1334876E2,1.9344482E-1,2.7593603E0,1.8690785E0,3.0594964E0,1.0273316E0,-3.9877824E-2,1.9582643E-1,8.387767E0,1.9733073E0,1.5737906E1,9.897046E-1,1.340585E0,1.3146762E1,1.235534E1,2.1228296E2,1.1954733E0,1.5630455E-1,6.843315E0,2.752887E-1,8.933623E0,1.8669198E-1,1.4320014E1,3.0327436E-1,2.929434E-1,9.829218E-2,6.7611976E0,1.9708335E-1,1.2999631E1,9.885243E-2,1.3382262E-1,9.048892E0,4.948922E0,-2.0818429E-1,-4.5558405E-1,2.5656189E1,1.3015505E1,1.1936052E-1,2.4292639E1,1.5617477E-2],"categories":[],"categories_nodes":[],"categories_segments":[],"categories_sizes":[],"default_left":[0,0,0,0,1,0,0,0,0,0,0,0,0,0,0,0,0,0,0,0,0,0,0,0,0,0,1,0,0,0,0,0,0,0,0,0,0,0,0,1,0,0,0,0,0,0,0,0,0,0,0,0,0,0,0,0,0,0,0,0,0,0,0,0,0,0,0],"id":6,"left_children":[1,3,5,7,9,11,13,15,17,19,21,-1,23,25,27,-1,-1,-1,29,-1,31,-1,33,35,37,-1,39,41,43,45,47,49,51,-1,-1,-1,53,-1,55,57,-1,59,61,63,65,-1,-1,-1,-1,-1,-1,-1,-1,-1,-1,-1,-1,-1,-1,-1,-1,-1,-1,-1,-1,-1,-1],"loss_changes":[4.8176075E5,1.05099625E5,2.8989875E5,8.849506E4,1.2618234E5,6.4042438E4,1.9330319E5,2.991361E4,4.2099938E4,5.4828312E4,9.37924E4,0E0,5.7001406E4,4.5375688E4,1.53649E5,0E0,0E0,0E0,2.1655312E4,0E0,4.2377688E4,0E0,5.3778634E0,1.3412406E4,4.8913844E4,0E0,3.3863844E4,1.1727761E5,1.4443027E5,1.7246312E4,1.52979375E4,3.9277016E4,2.7819312E4,0E0,0E0,0E0,1.2921906E4,0E0,3.3284734E4,3.1788781E4,0E0,3.855789E3,5.8777188E4,3.3260188E4,1.1787465E5,0E0,0E0,0E0,0E0,0E0,0E0,0E0,0E0,0E0,0E0,0E0,0E0,0E0,0E0,0E0,0E0,0E0,0E0,0E0,0E0,0E0,0E0],"parents":[2147483647,0,0,1,1,2,2,3,3,4,4,5,5,6,6,7,7,8,8,9,9,10,10,12,12,13,13,14,14,18,18,20,20,22,22,23,23,24,24,26,26,27,27,28,28,29,29,30,30,31,31,32,32,36,36,38,38,39,39,41,41,42,42,43,43,44,44],"right_children":[2,4,6,8,10,12,14,16,18,20,22,-1,24,26,28,-1,-1,-1,30,-1,32,-1,34,36,38,-1,40,42,44,46,48,50,52,-1,-1,-1,54,-1,56,58,-1,60,62,64,66,-1,-1,-1,-1,-1,-1,-1,-1,-1,-1,-1,-1,-1,-1,-1,-1,-1,-1,-1,-1,-1,-1],"split_conditions":[5.494522E-2,3.2845434E-2,5.327411E-2,1.434259E-1,1.2831493E-1,5.65359E-1,4.6750754E-2,1.3559262E-1,1.432061E-1,1.637354E-1,7.016122E-2,1.8020262E1,3.380606E-2,3.912444E-1,2.656164E-1,2.0084394E1,5.6501236E-2,1.4726138E1,2.5135517E-2,1.6666513E1,3.5855543E-2,2.3560156E1,1.4469339E-1,6.5461695E-2,5.40516E-1,1.519712E1,4.5624164E-1,1.7255248E-1,4.958271E-2,8.250961E-2,1.6010247E-1,2.9358208E-1,3.8171176E-2,-3.9877824E-2,1.9582643E-1,8.387767E0,1.8225667E-1,1.5737906E1,2.5345764E-1,1.636592E-1,1.3146762E1,4.5760177E-2,1.4147249E-1,7.7867314E-2,3.043344E-1,6.843315E0,2.752887E-1,8.933623E0,1.8669198E-1,1.4320014E1,3.0327436E-1,2.929434E-1,9.829218E-2,6.7611976E0,1.9708335E-1,1.2999631E1,9.885243E-2,1.3382262E-1,9.048892E0,4.948922E0,-2.0818429E-1,-4.5558405E-1,2.5656189E1,1.3015505E1,1.1936052E-1,2.4292639E1,1.5617477E-2],"split_indices":[1292656,1292656,1066086,361590,1098545,218476,798422,17684,492835,413721,1066086,0,1066086,183249,1098545,0,0,0,1292656,0,127671,0,123650,229885,1093752,0,270967,1098545,202049,1862716,107365,485598,660518,0,0,0,779667,0,653927,378474,0,87883,54930,312164,147222,0,0,0,0,0,0,0,0,0,0,0,0,0,0,0,0,0,0,0,0,0,0],"split_type":[0,0,0,0,0,0,0,0,0,0,0,0,0,0,0,0,0,0,0,0,0,0,0,0,0,0,0,0,0,0,0,0,0,0,0,0,0,0,0,0,0,0,0,0,0,0,0,0,0,0,0,0,0,0,0,0,0,0,0,0,0,0,0,0,0,0,0],"sum_hessian":[4.79539E6,4.62883E5,4.332507E6,1.2292E5,3.39963E5,2.99841E5,4.032666E6,3E0,1.22917E5,3.39957E5,6E0,1E0,2.9984E5,1.51745E5,3.880921E6,2E0,1E0,1E0,1.22916E5,1E0,3.39956E5,3E0,3E0,8.0404E4,2.19436E5,1E0,1.51744E5,1.1E1,3.88091E6,4.101E4,8.1906E4,1.0591E4,3.29365E5,1E0,2E0,1E0,8.0403E4,1E0,2.19435E5,1.51743E5,1E0,6E0,5E0,1.38704E5,3.742206E6,3E0,4.1007E4,1E0,8.1905E4,1E0,1.059E4,7.513E3,3.21852E5,2E0,8.0401E4,1E0,2.19434E5,1.5174E5,3E0,1E0,5E0,1E0,4E0,1E0,1.38703E5,1E0,3.742205E6],"tree_param":{"num_deleted":"0","num_feature":"2086590","num_nodes":"67","size_leaf_vector":"1"}},{"base_weights":[-2.7375343E-1,1.112309E-1,-3.0814677E-1,8.745631E0,1.1056432E-1,1.4681012E1,-3.0821356E-1,4.998784E-1,2.0727517E-2,1.5405892E-1,-3.2819366E-1,6.916969E0,4.98009E-1,8.047638E0,2.0223875E-2,1.5265635E-1,6.406594E1,6.867021E0,-3.2830805E-1,6.739013E0,4.9618778E-1,9.619779E-1,-5.0251436E-4,6.6159754E0,1.5193167E-1,9.475043E-2,1.2671062E1,2.4582556E-1,-3.403776E-1,6.2669687E0,4.944946E-2,5.4123087E0,9.463843E-2,4.883078E0,-9.710622E-5,5.362618E0,1.5105123E-2,7.718452E0,2.440516E-2,1.1522263E1,-3.4043342E-2],"categories":[],"categories_nodes":[],"categories_segments":[],"categories_sizes":[],"default_left":[0,0,0,0,0,0,0,0,0,1,0,0,0,0,0,0,0,0,0,0,0,0,0,0,0,0,0,0,0,0,0,0,0,0,0,0,0,0,0,0,0],"id":7,"left_children":[1,3,5,-1,7,-1,9,11,13,15,17,-1,19,-1,21,23,25,-1,27,-1,29,31,33,-1,35,-1,-1,37,39,-1,-1,-1,-1,-1,-1,-1,-1,-1,-1,-1,-1],"loss_changes":[6.3495344E4,2.288765E4,4.32875E4,0E0,1.3754539E4,0E0,4.0659125E4,9.431094E3,1.2946305E4,1.633925E4,3.3325438E4,0E0,8.949107E3,0E0,6.237074E3,8.713945E3,1.5696078E4,0E0,2.9240812E4,0E0,7.7310527E3,5.6529546E3,7.1535513E3,0E0,8.578604E3,0E0,0E0,1.1839338E4,2.67095E4,0E0,0E0,0E0,0E0,0E0,0E0,0E0,0E0,0E0,0E0,0E0,0E0],"parents":[2147483647,0,0,1,1,2,2,4,4,6,6,7,7,8,8,9,9,10,10,12,12,14,14,15,15,16,16,18,18,20,20,21,21,22,22,24,24,27,27,28,28],"right_children":[2,4,6,-1,8,-1,10,12,14,16,18,-1,20,-1,22,24,26,-1,28,-1,30,32,34,-1,36,-1,-1,38,40,-1,-1,-1,-1,-1,-1,-1,-1,-1,-1,-1,-1],"split_conditions":[5.029439E-2,8.450517E-2,1.7346422E-1,8.745631E0,2.8780507E-2,1.4681012E1,3.776004E-2,6.5974995E-2,2.529796E-1,1.713242E-1,7.770096E-2,6.916969E0,2.2442202E-1,8.047638E0,3.1261552E-2,3.361134E-1,4.549774E-2,6.867021E0,4.84973E-2,6.739013E0,2.3029327E-1,8.181476E-2,7.312015E-2,6.6159754E0,1.4408617E-1,9.475043E-2,1.2671062E1,9.323367E-2,7.3067784E-1,6.2669687E0,4.944946E-2,5.4123087E0,9.463843E-2,4.883078E0,-9.710622E-5,5.362618E0,1.5105123E-2,7.718452E0,2.440516E-2,1.1522263E1,-3.4043342E-2],"split_indices":[1292656,2011551,653927,0,1292656,0,1401323,42261,1841969,78694,628977,0,4156,0,1496064,58426,2315,0,585342,0,693593,20606,1125171,0,1853624,0,0,147969,1300583,0,0,0,0,0,0,0,0,0,0,0,0],"split_type":[0,0,0,0,0,0,0,0,0,0,0,0,0,0,0,0,0,0,0,0,0,0,0,0,0,0,0,0,0,0,0,0,0,0,0,0,0,0,0,0,0],"sum_hessian":[4.79539E6,3.93272E5,4.402118E6,2E0,3.9327E5,1E0,4.402117E6,7.3734E4,3.19536E5,1.82383E5,4.219734E6,1E0,7.3733E4,1E0,3.19535E5,1.8238E5,3E0,6E0,4.219728E6,1E0,7.3732E4,6.88E3,3.12655E5,1E0,1.82379E5,2E0,1E0,8.6881E4,4.132847E6,1E0,7.3731E4,1E0,6.879E3,2E0,3.12653E5,2E0,1.82377E5,1E0,8.688E4,1E0,4.132846E6],"tree_param":{"num_deleted":"0","num_feature":"2086590","num_nodes":"41","size_leaf_vector":"1"}},{"base_weights":[-1.3723779E-1,6.593303E1,-1.37844E-1,4.7232254E1,2.4113274E1,8.4162563E-1,-1.6239493E-1,2.647346E1,2.3263273E1,1.8020262E1,8.385592E-1,2.8097352E-1,-2.0394331E-1,1.24669075E1,1.857276E1,8.2820076E-1,2.4627842E1,2.8014264E-1,1.6666513E1,2.5769082E-1,-2.327289E-1,4.282567E0,1.0106713E1,1.7554553E0,6.2949413E-1,1.2239485E0,2.659362E1,5.903358E-1,1.4547315E-1,6.980367E1,2.5658172E-1,1.7919674E1,-2.3281796E-1,7.938452E-2,5.9705195E0,6.278311E0,1.746518E-1,9.517417E0,6.2752865E-2,-3.8319316E-2,1.7215322E-1,7.064472E-2,2.83426E0,7.916105E-2,-6.8507763E-3,3.048557E0,1.4351851E-2,-3.6192197E-2,9.331285E0,9.279918E0,2.558435E-2,1.6125013E1,-2.3289813E-2],"categories":[],"categories_nodes":[],"categories_segments":[],"categories_sizes":[],"default_left":[0,1,0,1,0,0,0,1,0,0,1,1,0,1,0,0,0,0,0,0,0,1,0,0,0,0,0,1,0,0,0,0,0,0,0,0,0,0,0,0,0,0,0,0,0,0,0,0,0,0,0,0,0],"id":8,"left_children":[1,3,5,7,-1,9,11,13,-1,-1,15,17,19,21,-1,23,25,27,-1,29,31,33,-1,35,37,39,41,43,45,47,49,-1,51,-1,-1,-1,-1,-1,-1,-1,-1,-1,-1,-1,-1,-1,-1,-1,-1,-1,-1,-1,-1],"loss_changes":[1.920741E5,1.3277106E5,1.15313375E5,1.5163772E5,0E0,6.4341117E4,8.6176266E4,8.244741E4,0E0,0E0,2.8874312E4,5.5367574E4,5.683811E4,2.5672012E4,0E0,2.1594656E4,2.3138047E3,1.67438E4,0E0,1.9346818E4,6.438983E4,6.5266436E3,0E0,1.1171684E4,1.7877367E4,4.6581163E0,2.1079531E3,1.6090504E4,1.657043E4,6.63191E3,1.7128334E4,0E0,5.215347E4,0E0,0E0,0E0,0E0,0E0,0E0,0E0,0E0,0E0,0E0,0E0,0E0,0E0,0E0,0E0,0E0,0E0,0E0,0E0,0E0],"parents":[2147483647,0,0,1,1,2,2,3,3,5,5,6,6,7,7,10,10,11,11,12,12,13,13,15,15,16,16,17,17,19,19,20,20,21,21,23,23,24,24,25,25,26,26,27,27,28,28,29,29,30,30,32,32],"right_children":[2,4,6,8,-1,10,12,14,-1,-1,16,18,20,22,-1,24,26,28,-1,30,32,34,-1,36,38,40,42,44,46,48,50,-1,52,-1,-1,-1,-1,-1,-1,-1,-1,-1,-1,-1,-1,-1,-1,-1,-1,-1,-1,-1,-1],"split_conditions":[3.5251024E-1,4.7224816E-2,5.5127718E-2,5.023957E-2,2.4113274E1,5.65359E-1,5.327411E-2,9.000048E-2,2.3263273E1,1.8020262E1,1.0361465E-1,2.3020244E-1,6.115345E-2,6.0179994E-2,1.857276E1,3.37248E-2,4.559345E-2,3.4111764E-2,1.6666513E1,8.250961E-2,5.898165E-1,9.419125E-2,1.0106713E1,3.4060102E-2,3.1100014E-1,8.2552426E-2,1.8207505E-1,2.6120838E-2,6.1309986E-2,3.3643078E-2,9.323367E-2,1.7919674E1,5.100032E-1,7.938452E-2,5.9705195E0,6.278311E0,1.746518E-1,9.517417E0,6.2752865E-2,-3.8319316E-2,1.7215322E-1,7.064472E-2,2.83426E0,7.916105E-2,-6.8507763E-3,3.048557E0,1.4351851E-2,-3.6192197E-2,9.331285E0,9.279918E0,2.558435E-2,1.6125013E1,-2.3289813E-2],"split_indices":[1098545,1110141,530175,345519,0,218476,1066086,1092057,0,0,403860,400831,127671,1197420,0,530175,1987417,1066086,0,1862716,582562,87883,0,651931,546228,19888,619886,1875052,181879,25371,147969,0,1240872,0,0,0,0,0,0,0,0,0,0,0,0,0,0,0,0,0,0,0,0],"split_type":[0,0,0,0,0,0,0,0,0,0,0,0,0,0,0,0,0,0,0,0,0,0,0,0,0,0,0,0,0,0,0,0,0,0,0,0,0,0,0,0,0,0,0,0,0,0,0,0,0,0,0,0,0],"sum_hessian":[4.79539E6,4.3E1,4.795347E6,4E1,3E0,1.17258E5,4.678089E6,3.7E1,3E0,1E0,1.17257E5,4.00825E5,4.277264E6,3.5E1,2E0,1.17207E5,5E1,4.00824E5,1E0,2.51057E5,4.026207E6,3.3E1,2E0,2.0683E4,9.6524E4,4E0,4.6E1,1.21337E5,2.79487E5,3E0,2.51054E5,1E0,4.026206E6,3.2E1,1E0,2E0,2.0681E4,1E0,9.6523E4,1E0,3E0,3E0,4.3E1,9.2943E4,2.8394E4,1.7E1,2.7947E5,1E0,2E0,1E0,2.51053E5,1E0,4.026205E6],"tree_param":{"num_deleted":"0","num_feature":"2086590","num_nodes":"53","size_leaf_vector":"1"}},{"base_weights":[3.701595E-1,1.6263639E0,3.0466068E-1,1.6235588E0,1.3462416E2,1.401025E0,2.496312E-1,2.5248976E0,1.3381368E0,1.921418E1,3.2231796E1,1.8745436E1,1.3984563E0,1.5510538E0,2.1542044E-1,8.024535E1,2.5207736E0,1.3362321E0,8.694935E1,4.701476E0,1.3329373E-1,1.5398254E1,1.397049E0,1.5457627E0,9.931806E1,1.0171611E0,1.7237058E-1,9.518401E0,2.5184016E0,3.5242453E0,2.22017E0,1.1298583E1,1.3349874E0,9.894206E0,2.5485601E0,1.398983E1,1.3957709E0,1.5429277E0,1.5833186E1,1.4457409E0,1.9670849E1,1.0144277E0,1.1861641E2,7.884979E-1,1.2690109E-1,3.4958315E-1,7.764965E0,8.492954E0,2.2163582E-1,1.1167273E1,1.3337573E-1,2.1441948E-1,1.1814411E-1,1.3604012E1,1.5404938E-1,-6.648944E-2,3.8888237E-1,1.5209342E1,1.0130208E-1,2.0017279E1,-2.4787569E-1,1.711925E1,7.872595E-2,2.3078007E1,1.2677762E-2],"categories":[],"categories_nodes":[],"categories_segments":[],"categories_sizes":[],"default_left":[0,1,0,0,0,0,0,0,1,0,0,0,0,1,0,0,0,0,1,0,0,0,0,1,0,1,0,0,0,1,0,0,0,0,0,0,0,0,0,0,0,0,0,0,0,0,0,0,0,0,0,0,0,0,0,0,0,0,0,0,0,0,0,0,0],"id":9,"left_children":[1,3,5,7,9,11,13,15,17,-1,19,-1,21,23,25,27,29,31,33,-1,-1,-1,35,37,39,41,43,-1,-1,45,47,-1,49,-1,-1,-1,51,53,-1,55,-1,57,59,61,63,-1,-1,-1,-1,-1,-1,-1,-1,-1,-1,-1,-1,-1,-1,-1,-1,-1,-1,-1,-1],"loss_changes":[3.9456394E5,8.844131E4,2.749795E5,6.1131875E4,2.325375E4,1.0384703E5,1.9322431E5,1.8115969E4,2.9315938E4,0E0,1.3076619E3,0E0,4.656228E4,5.735103E4,1.4595464E5,7.051172E1,1.7231312E4,2.4929781E4,4.268711E2,0E0,0E0,0E0,3.8363562E4,4.916228E4,5.690657E4,6.9148516E4,1.1243151E5,0E0,0E0,2.7471094E4,1.3677391E4,0E0,2.4347312E4,0E0,0E0,0E0,3.4939188E4,3.617725E4,0E0,2.3211483E1,0E0,4.5649125E4,4.987658E4,5.8074844E4,1.064018E5,0E0,0E0,0E0,0E0,0E0,0E0,0E0,0E0,0E0,0E0,0E0,0E0,0E0,0E0,0E0,0E0,0E0,0E0,0E0,0E0],"parents":[2147483647,0,0,1,1,2,2,3,3,4,4,5,5,6,6,7,7,8,8,10,10,12,12,13,13,14,14,15,15,16,16,17,17,18,18,22,22,23,23,24,24,25,25,26,26,29,29,30,30,32,32,36,36,37,37,39,39,41,41,42,42,43,43,44,44],"right_children":[2,4,6,8,10,12,14,16,18,-1,20,-1,22,24,26,28,30,32,34,-1,-1,-1,36,38,40,42,44,-1,-1,46,48,-1,50,-1,-1,-1,52,54,-1,56,-1,58,60,62,64,-1,-1,-1,-1,-1,-1,-1,-1,-1,-1,-1,-1,-1,-1,-1,-1,-1,-1,-1,-1],"split_conditions":[4.0219538E-2,1.2831493E-1,4.4103127E-2,2.6372483E-2,8.700247E-2,1.434259E-1,4.670745E-2,7.001916E-2,1.801619E-1,1.921418E1,4.5760177E-2,1.8745436E1,4.4427997E-1,1.555286E-1,6.894703E-2,4.1248996E-2,1.917807E-2,3.1255805E-1,1.3136023E-1,4.701476E0,1.3329373E-1,1.5398254E1,1.432061E-1,2.3020244E-1,1.02820754E-1,2.4669303E-1,6.021878E-2,9.518401E0,2.5184016E0,7.280721E-2,3.3369148E-1,1.1298583E1,2.964367E-1,9.894206E0,2.5485601E0,1.398983E1,2.8780507E-2,2.9358208E-1,1.5833186E1,2.5770593E-2,1.9670849E1,3.4924978E-1,2.1122043E-1,5.65359E-1,3.043344E-1,3.4958315E-1,7.764965E0,8.492954E0,2.2163582E-1,1.1167273E1,1.3337573E-1,2.1441948E-1,1.1814411E-1,1.3604012E1,1.5404938E-1,-6.648944E-2,3.8888237E-1,1.5209342E1,1.0130208E-1,2.0017279E1,-2.4787569E-1,1.711925E1,7.872595E-2,2.3078007E1,1.2677762E-2],"split_indices":[1860446,1098545,1292656,1860446,129516,361590,127671,556082,378474,0,87883,0,368474,1098545,585342,1,1860446,1585757,127671,0,0,0,492835,400831,129516,1098545,1066086,0,0,2011063,229525,0,334630,0,0,0,1292656,485598,0,127671,0,859406,431148,218476,147222,0,0,0,0,0,0,0,0,0,0,0,0,0,0,0,0,0,0,0,0],"split_type":[0,0,0,0,0,0,0,0,0,0,0,0,0,0,0,0,0,0,0,0,0,0,0,0,0,0,0,0,0,0,0,0,0,0,0,0,0,0,0,0,0,0,0,0,0,0,0,0,0,0,0,0,0,0,0,0,0,0,0,0,0,0,0,0,0],"sum_hessian":[4.79539E6,2.37641E5,4.557749E6,2.37637E5,4E0,2.17831E5,4.339918E6,5.7151E4,1.80486E5,2E0,2E0,2E0,2.17829E5,1.11161E5,4.228757E6,2E0,5.7149E4,1.80483E5,3E0,1E0,1E0,1E0,2.17828E5,1.11156E5,5E0,2.15493E5,4.013264E6,1E0,1E0,1.3171E4,4.3978E4,1E0,1.80482E5,2E0,1E0,1E0,2.17827E5,1.11155E5,1E0,3E0,2E0,2.15489E5,4E0,2.75818E5,3.737446E6,1.3167E4,4E0,1E0,4.3977E4,1E0,1.80481E5,4.8491E4,1.69336E5,1E0,1.11154E5,2E0,1E0,1E0,2.15488E5,2E0,2E0,1E0,2.75817E5,1E0,3.737445E6],"tree_param":{"num_deleted":"0","num_feature":"2086590","num_nodes":"65","size_leaf_vector":"1"}},{"base_weights":[-2.4635455E-1,3.4720305E-1,-2.6660255E-1,5.184662E1,3.445963E-1,2.3259403E-2,-2.98062E-1,6.9310393E0,-3.631335E-2,1.021534E1,3.4330687E-1,2.2465521E-2,1.8022764E1,1.3696205E1,-2.9812753E-1,8.162589E0,3.417631E-1,7.645256E0,2.2128783E-2,9.3108536E1,-2.9819444E-1,5.468141E1,3.4004325E-1,3.0344763E-1,-6.721383E-2,1.9318629E-2,1.3946962E1,2.433922E-2,-3.1634194E-1,7.2764985E-2,6.798794E0,7.5248847E0,3.390939E-2,6.01454E0,3.0235117E-2,-6.7892955E-3,4.6747866E0,4.0904574E0,2.3421806E-3,1.094615E1,-3.1639732E-2],"categories":[],"categories_nodes":[],"categories_segments":[],"categories_sizes":[],"default_left":[0,0,0,1,0,1,0,0,0,0,0,0,0,0,0,0,0,0,0,0,0,0,0,0,1,0,0,0,0,0,0,0,0,0,0,0,0,0,0,0,0],"id":10,"left_children":[1,3,5,7,9,11,13,-1,-1,-1,15,17,-1,-1,19,-1,21,-1,23,25,27,29,31,33,35,-1,-1,37,39,-1,-1,-1,-1,-1,-1,-1,-1,-1,-1,-1,-1],"loss_changes":[5.763278E4,2.1218475E4,4.2286188E4,7.3194043E3,2.0730205E4,6.4947527E4,3.7680594E4,0E0,0E0,0E0,1.9820836E4,1.168317E4,0E0,0E0,2.6174344E4,0E0,1.4764338E4,0E0,1.1411025E4,1.2896025E4,2.4484938E4,3.5402139E3,1.1222682E4,7.162158E3,1.0958412E4,0E0,0E0,8.356154E3,2.410225E4,0E0,0E0,0E0,0E0,0E0,0E0,0E0,0E0,0E0,0E0,0E0,0E0],"parents":[2147483647,0,0,1,1,2,2,3,3,4,4,5,5,6,6,10,10,11,11,14,14,16,16,18,18,19,19,20,20,21,21,22,22,23,23,24,24,27,27,28,28],"right_children":[2,4,6,8,10,12,14,-1,-1,-1,16,18,-1,-1,20,-1,22,-1,24,26,28,30,32,34,36,-1,-1,38,40,-1,-1,-1,-1,-1,-1,-1,-1,-1,-1,-1,-1],"split_conditions":[4.97654E-2,2.6085448E-1,5.8397334E-2,7.907893E-2,6.370218E-2,2.2633044E-1,1.2382445E-1,6.9310393E0,-3.631335E-2,1.021534E1,8.450517E-2,2.529796E-1,1.8022764E1,1.3696205E1,1.2831493E-1,8.162589E0,7.331625E-2,7.645256E0,3.4411386E-2,5.102637E-2,4.3071937E-2,1.4764655E-1,3.1255805E-1,1.6506554E-1,2.5298816E-1,1.9318629E-2,1.3946962E1,2.241392E-1,7.3067784E-1,7.2764985E-2,6.798794E0,7.5248847E0,3.390939E-2,6.01454E0,3.0235117E-2,-6.7892955E-3,4.6747866E0,4.0904574E0,2.3421806E-3,1.094615E1,-3.1639732E-2],"split_indices":[936964,1963960,1066086,303595,46232,835524,748112,0,0,0,2011551,1841969,0,0,1098545,0,761052,0,1066086,10477,1401323,15604,1585757,46799,1241687,0,0,1356599,1300583,0,0,0,0,0,0,0,0,0,0,0,0],"split_type":[0,0,0,0,0,0,0,0,0,0,0,0,0,0,0,0,0,0,0,0,0,0,0,0,0,0,0,0,0,0,0,0,0,0,0,0,0,0,0,0,0],"sum_hessian":[4.79539E6,1.58188E5,4.637202E6,7E0,1.58181E5,4.54012E5,4.18319E6,5E0,2E0,1E0,1.5818E5,4.54011E5,1E0,1E0,4.183189E6,2E0,1.58178E5,1E0,4.5401E5,2E0,4.183187E6,4E0,1.58174E5,1.09432E5,3.44578E5,1E0,1E0,2.22831E5,3.960356E6,1E0,3E0,1E0,1.58173E5,1E0,1.09431E5,3.44574E5,4E0,4E0,2.22827E5,1E0,3.960355E6],"tree_param":{"num_deleted":"0","num_feature":"2086590","num_nodes":"41","size_leaf_vector":"1"}},{"base_weights":[-1.2347406E-1,6.1205772E1,-1.2403677E-1,4.3923485E1,2.230478E1,3.6761478E-1,-1.6646945E-1,2.4740044E1,2.1518528E1,1.5833186E1,3.6678457E-1,7.1924484E-1,-1.8339133E-1,1.1669012E1,1.7334576E1,4.6305948E-1,-2.0711417E-1,4.9627678E1,7.139167E-1,1.711925E1,-1.8347041E-1,4.0322485E0,9.432933E0,9.020353E-1,3.0209816E-1,4.40324E0,-2.08727E-1,6.9824877E0,6.9249544E0,9.803695E0,7.1155584E-1,1.1609687E0,-1.9249335E-1,7.168662E-2,5.6719933E0,6.5082407E0,8.99092E-2,8.758582E0,3.0136561E-2,4.163096E0,-2.1025214E-2,-3.086015E-2,9.439007E-1,6.915632E0,7.090657E-2,1.1362807E-1,2.4096925E0,1.5318763E1,-1.925646E-2],"categories":[],"categories_nodes":[],"categories_segments":[],"categories_sizes":[],"default_left":[0,1,0,1,0,0,0,1,0,0,1,0,0,1,0,0,0,0,0,0,0,1,0,0,0,0,0,0,0,0,0,1,0,0,0,0,0,0,0,0,0,0,0,0,0,0,0,0,0],"id":11,"left_children":[1,3,5,7,-1,9,11,13,-1,-1,15,17,19,21,-1,23,25,27,29,-1,31,33,-1,35,37,-1,39,-1,41,-1,43,45,47,-1,-1,-1,-1,-1,-1,-1,-1,-1,-1,-1,-1,-1,-1,-1,-1],"loss_changes":[1.6549766E5,1.1327097E5,1.0004108E5,1.29377305E5,0E0,4.990553E4,6.616235E4,7.178956E4,0E0,0E0,2.1050402E4,2.153014E4,5.8739375E4,2.23449E4,0E0,2.3052375E4,3.9143691E3,7.278744E3,1.8943496E4,0E0,5.254592E4,5.8984526E3,0E0,1.6476422E4,1.523693E4,0E0,3.5012024E3,0E0,7.565503E1,0E0,1.40540625E4,1.6324031E4,4.705089E4,0E0,0E0,0E0,0E0,0E0,0E0,0E0,0E0,0E0,0E0,0E0,0E0,0E0,0E0,0E0,0E0],"parents":[2147483647,0,0,1,1,2,2,3,3,5,5,6,6,7,7,10,10,11,11,12,12,13,13,15,15,16,16,17,17,18,18,20,20,21,21,23,23,24,24,26,26,28,28,30,30,31,31,32,32],"right_children":[2,4,6,8,-1,10,12,14,-1,-1,16,18,20,22,-1,24,26,28,30,-1,32,34,-1,36,38,-1,40,-1,42,-1,44,46,48,-1,-1,-1,-1,-1,-1,-1,-1,-1,-1,-1,-1,-1,-1,-1,-1],"split_conditions":[3.5251024E-1,4.7224816E-2,4.9499236E-2,5.023957E-2,2.230478E1,1.637354E-1,5.509945E-2,9.000048E-2,2.1518528E1,1.5833186E1,3.9272007E-2,1.3174058E-1,5.65359E-1,6.0179994E-2,1.7334576E1,3.1582523E-2,1.8167125E-1,8.75332E-2,3.1255805E-1,1.711925E1,1.1390429E-1,9.419125E-2,9.432933E0,8.250961E-2,5.547512E-1,4.40324E0,1.5158005E-1,6.9824877E0,8.587944E-2,9.803695E0,1.4408617E-1,1.22724876E-1,5.100032E-1,7.168662E-2,5.6719933E0,6.5082407E0,8.99092E-2,8.758582E0,3.0136561E-2,4.163096E0,-2.1025214E-2,-3.086015E-2,9.439007E-1,6.915632E0,7.090657E-2,1.1362807E-1,2.4096925E0,1.5318763E1,-1.925646E-2],"split_indices":[1098545,1110141,1292656,345519,0,413721,1092618,1092057,0,0,1875052,100432,218476,1197420,0,1292656,580272,28400,1585757,0,1079977,87883,0,1862716,432240,0,575249,0,13350,0,1853624,403860,1240872,0,0,0,0,0,0,0,0,0,0,0,0,0,0,0,0],"split_type":[0,0,0,0,0,0,0,0,0,0,0,0,0,0,0,0,0,0,0,0,0,0,0,0,0,0,0,0,0,0,0,0,0,0,0,0,0,0,0,0,0,0,0,0,0,0,0,0,0],"sum_hessian":[4.79539E6,4.3E1,4.795347E6,4E1,3E0,3.80987E5,4.41436E6,3.7E1,3E0,1E0,3.80986E5,8.2756E4,4.331604E6,3.5E1,2E0,3.26255E5,5.4731E4,8E0,8.2748E4,1E0,4.331603E6,3.3E1,2E0,8.7532E4,2.38723E5,1E0,5.473E4,5E0,3E0,1E0,8.2747E4,2.8876E4,4.302727E6,3.2E1,1E0,3E0,8.7529E4,1E0,2.38722E5,1E0,5.4729E4,1E0,2E0,2E0,8.2745E4,2.8846E4,3E1,1E0,4.302726E6],"tree_param":{"num_deleted":"0","num_feature":"2086590","num_nodes":"49","size_leaf_vector":"1"}},{"base_weights":[3.3319804E-1,1.6242183E0,2.7884045E-1,1.6224928E0,1.6796804E1,1.3883893E0,2.3209715E-1,1.5356567E1,1.620916E0,1.3854896E0,1.08996216E2,1.4277153E0,1.9966158E-1,2.5824106E0,1.3723313E0,2.0955446E0,1.1537277E0,1.7933235E1,2.328012E-1,1.4229263E0,1.1284267E2,7.8607136E-1,1.4753163E-1,2.5749168E0,1.5041529E1,1.2359665E1,1.3707346E0,9.446805E0,2.0914626E0,8.707681E0,1.1524941E0,1.4448874E1,1.4204606E0,1.8721375E1,8.573662E-2,7.8452253E-1,1.364828E2,8.605672E-1,1.11586295E-1,8.788771E0,2.568421E-1,1.3692872E-1,1.1208903E1,2.0848529E-1,4.5008664E0,1.15126275E-1,8.692273E0,2.4437821E-1,1.1985872E-1,1.565297E-1,6.465753E-2,3.6943823E-1,1.7951414E1,8.589941E-2,1.4945946E1,2.1924107E1,1.1146966E-2],"categories":[],"categories_nodes":[],"categories_segments":[],"categories_sizes":[],"default_left":[0,1,0,0,0,1,0,0,0,0,0,1,0,1,0,0,0,0,0,0,0,1,0,0,0,0,1,0,1,0,1,0,0,0,0,0,0,1,0,0,0,0,0,0,0,0,0,0,0,0,0,0,0,0,0,0,0],"id":12,"left_children":[1,3,5,7,-1,9,11,-1,13,15,17,19,21,23,25,27,29,-1,-1,31,33,35,37,39,-1,-1,41,-1,43,-1,45,-1,47,-1,-1,49,51,53,55,-1,-1,-1,-1,-1,-1,-1,-1,-1,-1,-1,-1,-1,-1,-1,-1,-1,-1],"loss_changes":[3.3652444E5,5.533853E4,2.3865925E5,4.6171312E4,0E0,5.7896844E4,1.7123998E5,0E0,4.630447E4,3.0609406E4,3.7095664E4,6.2067094E4,1.3141811E5,4.3704656E4,2.9876062E4,1.7061719E4,1.4764422E4,0E0,0E0,4.093433E4,4.148183E4,7.365467E4,1.0118912E5,2.1829875E4,0E0,0E0,2.45155E4,0E0,1.2890828E4,0E0,1.4711953E4,0E0,2.647561E4,0E0,0E0,3.7799797E4,2.2193062E4,4.416297E4,9.6035484E4,0E0,0E0,0E0,0E0,0E0,0E0,0E0,0E0,0E0,0E0,0E0,0E0,0E0,0E0,0E0,0E0,0E0,0E0],"parents":[2147483647,0,0,1,1,2,2,3,3,5,5,6,6,8,8,9,9,10,10,11,11,12,12,13,13,14,14,15,15,16,16,19,19,20,20,21,21,22,22,23,23,26,26,28,28,30,30,32,32,35,35,36,36,37,37,38,38],"right_children":[2,4,6,8,-1,10,12,-1,14,16,18,20,22,24,26,28,30,-1,-1,32,34,36,38,40,-1,-1,42,-1,44,-1,46,-1,48,-1,-1,50,52,54,56,-1,-1,-1,-1,-1,-1,-1,-1,-1,-1,-1,-1,-1,-1,-1,-1,-1,-1],"split_conditions":[4.780824E-2,1.9124171E-1,4.1260745E-2,2.8237322E-1,1.6796804E1,1.2831493E-1,3.535904E-2,1.5356567E1,2.9473597E-2,2.8210953E-2,8.700247E-2,1.555286E-1,6.017917E-2,2.3020244E-1,8.282455E-2,1.2152144E-1,2.3029327E-1,1.7933235E1,2.328012E-1,3.4924978E-1,1.3376296E-1,2.4669303E-1,4.4624366E-2,2.7447617E-1,1.5041529E1,1.2359665E1,1.9824743E-1,9.446805E0,1.15118735E-1,8.707681E0,4.4142133E-1,1.4448874E1,2.2934608E-2,1.8721375E1,8.573662E-2,3.4743983E-2,3.6495395E-2,2.70253E-1,2.493144E-1,8.788771E0,2.568421E-1,1.3692872E-1,1.1208903E1,2.0848529E-1,4.5008664E0,1.15126275E-1,8.692273E0,2.4437821E-1,1.1985872E-1,1.565297E-1,6.465753E-2,3.6943823E-1,1.7951414E1,8.589941E-2,1.4945946E1,2.1924107E1,1.1146966E-2],"split_indices":[660518,522317,1066086,304402,0,1098545,814966,0,660518,1066086,129516,1098545,798422,400831,541592,361590,693593,0,0,859406,180953,1098545,1401323,1853532,0,0,332142,0,1199196,0,269155,0,814966,0,0,798422,127671,1093752,1304174,0,0,0,0,0,0,0,0,0,0,0,0,0,0,0,0,0,0],"split_type":[0,0,0,0,0,0,0,0,0,0,0,0,0,0,0,0,0,0,0,0,0,0,0,0,0,0,0,0,0,0,0,0,0,0,0,0,0,0,0,0,0,0,0,0,0,0,0,0,0,0,0,0,0,0,0,0,0],"sum_hessian":[4.79539E6,1.93748E5,4.601642E6,1.93747E5,1E0,1.86021E5,4.415621E6,1E0,1.93746E5,1.86017E5,4E0,1.16625E5,4.298996E6,3.9799E4,1.53947E5,4.5773E4,1.40244E5,2E0,2E0,1.16621E5,4E0,3.50966E5,3.94803E6,3.9798E4,1E0,1E0,1.53946E5,1E0,4.5772E4,1E0,1.40243E5,1E0,1.1662E5,2E0,2E0,3.50963E5,3E0,1.89474E5,3.758556E6,2E0,3.9796E4,1.53945E5,1E0,4.5766E4,6E0,1.40242E5,1E0,2.0778E4,9.5842E4,5.2696E4,2.98267E5,1E0,2E0,1.89473E5,1E0,1E0,3.758555E6],"tree_param":{"num_deleted":"0","num_feature":"2086590","num_nodes":"57","size_leaf_vector":"1"}},{"base_weights":[-2.2169432E-1,3.328061E-1,-2.4104445E-1,9.704574E0,3.3160785E-1,1.0938557E-1,-2.6259297E-1,7.1486406E0,3.307257E-1,8.652954E1,1.08419314E-1,1.3249614E1,-2.626537E-1,6.660727E0,3.299039E-1,1.3011395E1,-3.1964045E-2,7.3688135E0,1.07870676E-1,5.5312103E1,-2.6276824E-1,6.4003663E0,3.291143E-1,7.3308334E0,1.0732486E-1,7.1138015E0,-5.240643E-3,1.9555579E-1,-2.7473295E-1,6.2855163E0,3.2833885E-2,3.843103E-2,-7.2096555E-5,1.9160058E-2,4.010672E0,1.0398842E1,-2.7478192E-2],"categories":[],"categories_nodes":[],"categories_segments":[],"categories_sizes":[],"default_left":[0,0,0,0,0,0,0,0,0,0,0,0,0,0,0,0,0,0,0,1,0,0,0,0,0,0,0,1,0,0,0,0,0,0,0,0,0],"id":13,"left_children":[1,3,5,-1,7,9,11,-1,13,15,17,-1,19,-1,21,-1,-1,-1,23,25,27,-1,29,-1,31,-1,-1,33,35,-1,-1,-1,-1,-1,-1,-1,-1],"loss_changes":[5.1452938E4,1.8706902E4,3.4990188E4,0E0,1.0126025E4,2.240557E4,3.5249688E4,0E0,8.78516E3,1.1397398E4,1.0828018E4,0E0,2.7797E4,0E0,8.1086875E3,0E0,0E0,0E0,1.0716684E4,7.8894746E3,2.3937875E4,0E0,7.819002E3,0E0,8.033158E3,0E0,0E0,1.752361E4,2.1741562E4,0E0,0E0,0E0,0E0,0E0,0E0,0E0,0E0],"parents":[2147483647,0,0,1,1,2,2,4,4,5,5,6,6,8,8,9,9,10,10,12,12,14,14,18,18,19,19,20,20,22,22,24,24,27,27,28,28],"right_children":[2,4,6,-1,8,10,12,-1,14,16,18,-1,20,-1,22,-1,-1,-1,24,26,28,-1,30,-1,32,-1,-1,34,36,-1,-1,-1,-1,-1,-1,-1,-1],"split_conditions":[3.182487E-2,6.370218E-2,4.6232447E-2,9.704574E0,3.1255805E-1,1.3653848E-1,1.7346422E-1,7.1486406E0,7.8883804E-2,9.853233E-2,2.5904158E-1,1.3249614E1,7.404049E-2,6.660727E0,2.2442202E-1,1.3011395E1,-3.1964045E-2,7.3688135E0,9.323367E-2,6.846767E-2,5.4678015E-2,6.4003663E0,3.361134E-1,7.3308334E0,3.153E-2,7.1138015E0,-5.240643E-3,5.9662662E-2,7.3067784E-1,6.2855163E0,3.2833885E-2,3.843103E-2,-7.2096555E-5,1.9160058E-2,4.010672E0,1.0398842E1,-2.7478192E-2],"split_indices":[814966,46232,798422,0,1585757,1645283,653927,0,98110,19792,510175,0,508310,0,4156,0,0,0,147969,85054,936964,0,58426,0,798422,0,0,717583,1300583,0,0,0,0,0,0,0,0],"split_type":[0,0,0,0,0,0,0,0,0,0,0,0,0,0,0,0,0,0,0,0,0,0,0,0,0,0,0,0,0,0,0,0,0,0,0,0,0],"sum_hessian":[4.79539E6,1.61699E5,4.633691E6,1E0,1.61698E5,2.68427E5,4.365264E6,1E0,1.61697E5,2E0,2.68425E5,1E0,4.365263E6,1E0,1.61696E5,1E0,1E0,1E0,2.68424E5,8E0,4.365255E6,1E0,1.61695E5,1E0,2.68423E5,6E0,2E0,1.11057E5,4.254198E6,1E0,1.61694E5,7.5323E4,1.931E5,1.11047E5,1E1,1E0,4.254197E6],"tree_param":{"num_deleted":"0","num_feature":"2086590","num_nodes":"37","size_leaf_vector":"1"}},{"base_weights":[-1.1109E-1,5.682007E1,-1.1161235E-1,1.8910345E1,3.8864147E1,5.0006884E-1,-1.4180441E-1,2.0090097E1,1.6626447E2,4.9873734E-1,1.5041529E1,5.161002E-1,-1.6287513E-1,5.6690307E0,1.7683216E1,2.0801702E1,-3.729098E-2,4.9793777E-1,9.04251E0,6.884473E0,5.146511E-1,1.6263288E1,-1.6294862E-1,6.908886E-1,5.6879535E0,8.816885E0,4.9715817E-1,8.320653E0,5.1348126E-1,2.2758467E-1,-1.9074884E-1,5.3239846E-1,2.0454934E-2,6.0052093E-2,-9.836674E-3,6.4783854E0,5.12118E-2,5.5280443E-2,1.1465504E-2,1.7024652E1,-1.9083126E-2],"categories":[],"categories_nodes":[],"categories_segments":[],"categories_sizes":[],"default_left":[0,0,0,0,1,1,0,1,1,1,0,0,0,1,0,0,0,0,0,0,0,0,0,0,0,0,1,0,0,0,0,0,0,0,0,0,0,0,0,0,0],"id":14,"left_children":[1,3,5,-1,7,9,11,13,15,17,-1,19,21,23,-1,-1,-1,25,-1,-1,27,-1,29,31,-1,-1,33,-1,35,37,39,-1,-1,-1,-1,-1,-1,-1,-1,-1,-1],"loss_changes":[1.426122E5,9.716256E4,8.856014E4,0E0,9.2332516E4,4.4949297E4,6.3348883E4,8.037149E4,3.4865266E4,1.6173391E4,0E0,1.4006434E4,5.3004906E4,8.628431E3,0E0,0E0,0E0,1.5372262E4,0E0,0E0,1.3675824E4,0E0,4.807415E4,7.101519E1,0E0,0E0,1.3884301E4,0E0,1.2392043E4,1.0807209E4,5.8097703E4,0E0,0E0,0E0,0E0,0E0,0E0,0E0,0E0,0E0,0E0],"parents":[2147483647,0,0,1,1,2,2,4,4,5,5,6,6,7,7,8,8,9,9,11,11,12,12,13,13,17,17,20,20,22,22,23,23,26,26,28,28,29,29,30,30],"right_children":[2,4,6,-1,8,10,12,14,16,18,-1,20,22,24,-1,-1,-1,26,-1,-1,28,-1,30,32,-1,-1,34,-1,36,38,40,-1,-1,-1,-1,-1,-1,-1,-1,-1,-1],"split_conditions":[3.5251024E-1,1.1915857E-1,4.670745E-2,1.8910345E1,5.021921E-2,2.3020244E-1,5.8805678E-2,7.362898E-2,1.362409E-1,3.87393E-1,1.5041529E1,2.241392E-1,5.65359E-1,4.51249E-2,1.7683216E1,2.0801702E1,-3.729098E-2,9.323367E-2,9.04251E0,6.884473E0,5.547512E-1,1.6263288E1,4.4624366E-2,4.0186092E-2,5.6879535E0,8.816885E0,3.6433026E-2,8.320653E0,9.4438136E-2,3.0079674E-2,5.898165E-1,5.3239846E-1,2.0454934E-2,6.0052093E-2,-9.836674E-3,6.4783854E0,5.12118E-2,5.5280443E-2,1.1465504E-2,1.7024652E1,-1.9083126E-2],"split_indices":[1098545,1372688,127671,0,617611,400831,1075078,664224,2316,422998,0,1356599,218476,87883,0,0,0,147969,0,0,432240,0,1401323,193168,0,0,1875052,0,571638,1401323,582562,0,0,0,0,0,0,0,0,0,0],"split_type":[0,0,0,0,0,0,0,0,0,0,0,0,0,0,0,0,0,0,0,0,0,0,0,0,0,0,0,0,0,0,0,0,0,0,0,0,0,0,0,0,0],"sum_hessian":[4.79539E6,4.3E1,4.795347E6,4E0,3.9E1,2.2556E5,4.569787E6,3.5E1,4E0,2.25559E5,1E0,1.41814E5,4.427973E6,3.3E1,2E0,3E0,1E0,2.25558E5,1E0,2E0,1.41812E5,1E0,4.427972E6,3.1E1,2E0,1E0,2.25557E5,1E0,1.41811E5,2.94259E5,4.133713E6,2E0,2.9E1,1.92198E5,3.3359E4,2E0,1.41809E5,7.5842E4,2.18417E5,1E0,4.133712E6],"tree_param":{"num_deleted":"0","num_feature":"2086590","num_nodes":"41","size_leaf_vector":"1"}},{"base_weights":[2.999239E-1,9.6050185E-1,2.0881313E-1,1.5518956E0,7.442035E-1,1.1851026E0,1.6723591E-1,1.2482196E2,1.5487179E0,8.813224E1,7.4235374E-1,1.1826895E0,2.08279E1,1.0395776E0,1.3139166E-1,1.6620953E1,3.296414E-2,1.3692273E1,1.5469683E0,2.718964E0,1.942191E1,7.415136E-1,1.7913534E1,1.4588739E1,1.1810013E0,1.0380194E0,1.2480964E1,9.781491E1,1.3111487E-1,1.32871065E1,1.545271E0,7.348208E-1,-4.3596816E0,1.4289452E1,7.4084383E-1,1.9923592E0,9.469854E-1,1.8892857E0,8.732788E-1,-1.8822939E0,1.8120964E2,8.726971E-1,9.6249804E-2,2.5113103E-1,1.4314316E-1,-6.104459E-1,-4.3506384E-2,2.3219164E-1,6.846465E-2,8.172446E0,1.9860995E-1,1.1741682E1,9.452348E-2,7.736666E0,1.8833764E-1,8.719326E-2,9.040878E0,3.3363063E-2,-4.2094287E-1,1.3581648E-1,2.169083E1,1.7263533E1,8.7072164E-2,1.7282551E-2,-1.925406E-2],"categories":[],"categories_nodes":[],"categories_segments":[],"categories_sizes":[],"default_left":[0,0,0,0,0,1,0,0,0,0,1,0,0,1,0,0,0,0,0,0,0,0,0,0,0,0,0,0,0,0,0,0,0,0,0,0,0,0,1,0,0,0,1,0,0,0,0,0,0,0,0,0,0,0,0,0,0,0,0,0,0,0,0,0,0],"id":15,"left_children":[1,3,5,7,9,11,13,15,17,19,21,23,-1,25,27,-1,-1,-1,29,31,-1,33,-1,-1,35,37,-1,39,41,-1,43,-1,45,-1,47,49,51,53,55,57,59,61,63,-1,-1,-1,-1,-1,-1,-1,-1,-1,-1,-1,-1,-1,-1,-1,-1,-1,-1,-1,-1,-1,-1],"loss_changes":[2.8861406E5,7.4349625E4,1.7105811E5,6.0781188E4,6.873094E4,8.577533E4,1.2638738E5,2.055495E4,3.6650344E4,8.102295E4,6.364786E4,4.1878016E4,0E0,3.063736E4,1.0496305E5,0E0,0E0,0E0,3.4490062E4,2.286485E2,0E0,4.0414594E4,0E0,0E0,3.2681484E4,2.2370406E4,0E0,9.1797516E4,1.0038257E5,0E0,1.7113656E4,0E0,1.7886917E1,0E0,3.781178E4,1.9069156E4,2.712996E4,1.1391E4,1.6032695E4,3.2344925E1,3.8228156E4,5.900472E4,8.200311E4,0E0,0E0,0E0,0E0,0E0,0E0,0E0,0E0,0E0,0E0,0E0,0E0,0E0,0E0,0E0,0E0,0E0,0E0,0E0,0E0,0E0,0E0],"parents":[2147483647,0,0,1,1,2,2,3,3,4,4,5,5,6,6,7,7,8,8,9,9,10,10,11,11,13,13,14,14,18,18,19,19,21,21,24,24,25,25,27,27,28,28,30,30,32,32,34,34,35,35,36,36,37,37,38,38,39,39,40,40,41,41,42,42],"right_children":[2,4,6,8,10,12,14,16,18,20,22,24,-1,26,28,-1,-1,-1,30,32,-1,34,-1,-1,36,38,-1,40,42,-1,44,-1,46,-1,48,50,52,54,56,58,60,62,64,-1,-1,-1,-1,-1,-1,-1,-1,-1,-1,-1,-1,-1,-1,-1,-1,-1,-1,-1,-1,-1,-1],"split_conditions":[6.385676E-2,3.5197377E-2,5.6024086E-2,1.434259E-1,2.6031923E-1,3.4243888E-1,4.9026206E-2,1.3559262E-1,4.4427997E-1,8.079117E-2,3.4943166E-1,2.8237322E-1,2.08279E1,4.5624164E-1,2.656164E-1,1.6620953E1,3.296414E-2,1.3692273E1,1.432061E-1,3.2457996E-2,1.942191E1,1.637354E-1,1.7913534E1,1.4588739E1,3.5291955E-2,3.0513056E-2,1.2480964E1,1.4566693E-1,6.055637E-2,1.32871065E1,2.090828E-2,7.348208E-1,1.0978317E-1,1.4289452E1,4.5571152E-2,1.4408617E-1,7.7867314E-2,6.81697E-2,2.0533194E-1,3.636282E-2,5.458245E-2,6.4398956E-1,6.525617E-2,2.5113103E-1,1.4314316E-1,-6.104459E-1,-4.3506384E-2,2.3219164E-1,6.846465E-2,8.172446E0,1.9860995E-1,1.1741682E1,9.452348E-2,7.736666E0,1.8833764E-1,8.719326E-2,9.040878E0,3.3363063E-2,-4.2094287E-1,1.3581648E-1,2.169083E1,1.7263533E1,8.7072164E-2,1.7282551E-2,-1.925406E-2],"split_indices":[1292656,1292656,660518,361590,1098545,146433,2047811,17684,368474,1619493,582562,304402,0,270967,1098545,0,0,0,492835,251407,0,413721,0,0,660518,2047811,0,54930,127671,0,1292656,0,11754,0,1109660,1853624,312164,80429,2059813,814966,10477,1511739,830763,0,0,0,0,0,0,0,0,0,0,0,0,0,0,0,0,0,0,0,0,0,0],"split_type":[0,0,0,0,0,0,0,0,0,0,0,0,0,0,0,0,0,0,0,0,0,0,0,0,0,0,0,0,0,0,0,0,0,0,0,0,0,0,0,0,0,0,0,0,0,0,0,0,0,0,0,0,0,0,0,0,0,0,0,0,0,0,0,0,0],"sum_hessian":[4.79539E6,5.81239E5,4.214151E6,1.55653E5,4.25586E5,1.72136E5,4.042015E6,3E0,1.5565E5,8E0,4.25578E5,1.72135E5,1E0,1.59529E5,3.882486E6,2E0,1E0,1E0,1.55649E5,5E0,3E0,4.25577E5,1E0,1E0,1.72134E5,1.59528E5,1E0,1E1,3.882476E6,1E0,1.55648E5,3E0,2E0,1E0,4.25576E5,3.8532E4,1.33602E5,2.5865E4,1.33663E5,5E0,5E0,1.74335E5,3.708141E6,1.6406E4,1.39242E5,1E0,1E0,1.4606E4,4.1097E5,2E0,3.853E4,1E0,1.33601E5,1E0,2.5864E4,1.33662E5,1E0,3E0,2E0,1E0,4E0,1E0,1.74334E5,2.930966E6,7.77175E5],"tree_param":{"num_deleted":"0","num_feature":"2086590","num_nodes":"65","size_leaf_vector":"1"}},{"base_weights":[-1.995043E-1,2.9258484E-1,-2.1825585E-1,6.964292E0,2.9179522E-1,1.1348311E-1,-2.389285E-1,6.7912087E0,2.9102525E-1,7.0003734E0,1.1296684E-1,1.2587134E1,-2.3898645E-1,6.5728335E0,2.9028007E-1,4.7406E-1,2.5648935E-2,5.0501595E1,-2.3909141E-1,6.32769E0,2.8956276E-1,5.0020175E0,4.7123396E-1,5.950003E0,2.5103701E-2,6.466236E0,6.259308E-2,-1.6022133E-2,-2.6156962E-1,6.0803485E0,2.8887356E-2,4.690776E-2,5.7124043E0,4.1011186E0,2.4352255E-3,9.219344E0,-1.6485382E-3,1.2360825E1,-2.6163226E-2],"categories":[],"categories_nodes":[],"categories_segments":[],"categories_sizes":[],"default_left":[0,0,0,0,0,0,0,0,0,0,0,0,0,0,0,0,0,1,0,0,0,0,1,0,0,0,0,0,0,0,0,0,0,0,0,0,0,0,0],"id":16,"left_children":[1,3,5,-1,7,9,11,-1,13,-1,15,-1,17,-1,19,21,23,25,27,-1,29,-1,31,-1,33,-1,-1,35,37,-1,-1,-1,-1,-1,-1,-1,-1,-1,-1],"loss_changes":[4.4249203E4,9.618962E3,3.1679297E4,0E0,9.145027E3,9.769354E3,3.1807531E4,0E0,8.564096E3,0E0,8.543771E3,0E0,2.3171469E4,0E0,7.934634E3,7.3646484E3,7.0744683E3,6.3160273E3,2.180364E4,0E0,7.323869E3,0E0,6.4191064E3,0E0,6.719558E3,0E0,0E0,1.7005254E4,3.0687406E4,0E0,0E0,0E0,0E0,0E0,0E0,0E0,0E0,0E0,0E0],"parents":[2147483647,0,0,1,1,2,2,4,4,5,5,6,6,8,8,10,10,12,12,14,14,15,15,16,16,17,17,18,18,20,20,22,22,24,24,27,27,28,28],"right_children":[2,4,6,-1,8,10,12,-1,14,-1,16,-1,18,-1,20,22,24,26,28,-1,30,-1,32,-1,34,-1,-1,36,38,-1,-1,-1,-1,-1,-1,-1,-1,-1,-1],"split_conditions":[3.6137503E-2,9.323367E-2,6.3843906E-2,6.964292E0,3.1255805E-1,2.5904158E-1,1.7346422E-1,6.7912087E0,6.5974995E-2,7.0003734E0,3.6209643E-2,1.2587134E1,8.991602E-2,6.5728335E0,2.1119644E-1,1.4408617E-1,2.3029327E-1,1.01000875E-1,6.1798133E-2,6.32769E0,2.2442202E-1,5.0020175E0,2.290102E-1,5.950003E0,1.5884607E-1,6.466236E0,6.259308E-2,6.370218E-2,1.3653848E-1,6.0803485E0,2.8887356E-2,4.690776E-2,5.7124043E0,4.1011186E0,2.4352255E-3,9.219344E0,-1.6485382E-3,1.2360825E1,-2.6163226E-2],"split_indices":[1860446,147969,585342,0,1585757,510175,653927,0,42261,0,585342,0,761052,0,192783,1853624,693593,85054,1066086,0,4156,0,9096,0,646111,0,0,46232,1645283,0,0,0,0,0,0,0,0,0,0],"split_type":[0,0,0,0,0,0,0,0,0,0,0,0,0,0,0,0,0,0,0,0,0,0,0,0,0,0,0,0,0,0,0,0,0,0,0,0,0,0,0],"sum_hessian":[4.79539E6,1.76025E5,4.619365E6,1E0,1.76024E5,2.70974E5,4.348391E6,1E0,1.76023E5,1E0,2.70973E5,1E0,4.34839E6,1E0,1.76022E5,5.2765E4,2.18208E5,8E0,4.348382E6,1E0,1.76021E5,2E0,5.2763E4,1E0,2.18207E5,6E0,2E0,3.98065E5,3.950317E6,1E0,1.7602E5,5.2762E4,1E0,3E0,2.18204E5,1E0,3.98064E5,1E0,3.950316E6],"tree_param":{"num_deleted":"0","num_feature":"2086590","num_nodes":"39","size_leaf_vector":"1"}},{"base_weights":[-9.994937E-2,5.258349E1,-1.00432746E-1,3.7702244E1,1.9197037E1,8.476486E-1,-1.18501335E-1,2.1236887E1,1.8469757E1,8.3757013E-1,2.0468203E1,1.1501628E0,-1.2903135E-1,1.0037379E1,1.4855202E1,4.709014E0,8.344646E-1,-1.8923208E-1,2.2440083E1,2.3370798E1,1.1357832E0,3.9113948E-1,-1.5150298E-1,2.358697E0,7.087716E1,1.506057E0,6.330546E-1,3.5436522E-2,-6.6975206E-2,-1.6224164E-1,2.4182882E1,-3.5761586E-1,2.5449688E0,7.9003305E0,1.1317308E0,1.4289452E1,3.8966277E-1,1.5450122E1,-1.515721E-1,6.4544424E-2,2.8591392E0,-4.5615025E-2,9.480699E0,7.5526986E0,1.4988245E-1,6.311488E0,6.3032694E-2,2.0446265E-1,-1.5794066E-1,2.614788E0,4.5218587E-2,5.033051E-2,-1.0397289E-1,4.2601514E0,1.1263447E-1,9.314465E0,3.887009E-2,1.4553779E1,-1.516372E-2],"categories":[],"categories_nodes":[],"categories_segments":[],"categories_sizes":[],"default_left":[0,1,0,1,0,1,0,1,0,0,0,0,0,1,0,0,0,0,0,0,0,0,0,1,0,0,0,0,0,0,1,0,0,0,0,0,0,0,0,0,0,0,0,0,0,0,0,0,0,0,0,0,0,0,0,0,0,0,0],"id":17,"left_children":[1,3,5,7,-1,9,11,13,-1,15,17,19,21,23,-1,-1,25,27,29,31,33,35,37,39,41,43,45,-1,-1,47,49,51,-1,-1,53,-1,55,-1,57,-1,-1,-1,-1,-1,-1,-1,-1,-1,-1,-1,-1,-1,-1,-1,-1,-1,-1,-1,-1],"loss_changes":[1.2212508E5,8.4029305E4,8.214678E4,9.531114E4,0E0,1.7716828E4,6.286339E4,5.2691867E4,0E0,1.2835969E4,1.8780098E3,1.2350602E4,5.4552258E4,1.6650918E4,0E0,0E0,1.2123023E4,1.5433837E0,1.6583594E3,1.2423193E3,1.2126043E4,4.061469E4,4.7834938E4,1.4646725E3,6.8712207E3,1.0957008E4,1.1712047E4,0E0,0E0,1.5739281E1,1.8067754E3,2.285037E0,0E0,0E0,8.598559E3,0E0,1.7207002E4,0E0,4.2450758E4,0E0,0E0,0E0,0E0,0E0,0E0,0E0,0E0,0E0,0E0,0E0,0E0,0E0,0E0,0E0,0E0,0E0,0E0,0E0,0E0],"parents":[2147483647,0,0,1,1,2,2,3,3,5,5,6,6,7,7,9,9,10,10,11,11,12,12,13,13,16,16,17,17,18,18,19,19,20,20,21,21,22,22,23,23,24,24,25,25,26,26,29,29,30,30,31,31,34,34,36,36,38,38],"right_children":[2,4,6,8,-1,10,12,14,-1,16,18,20,22,24,-1,-1,26,28,30,32,34,36,38,40,42,44,46,-1,-1,48,50,52,-1,-1,54,-1,56,-1,58,-1,-1,-1,-1,-1,-1,-1,-1,-1,-1,-1,-1,-1,-1,-1,-1,-1,-1,-1,-1],"split_conditions":[3.5251024E-1,4.7224816E-2,5.0069906E-2,5.023957E-2,1.9197037E1,9.9663585E-2,1.1050986E-1,9.000048E-2,1.8469757E1,3.563184E-1,5.548935E-2,1.9601879E-1,3.7602436E-2,7.129182E-2,1.4855202E1,4.709014E0,3.37248E-2,8.385539E-2,6.3830316E-2,5.635789E-2,7.492318E-2,1.637354E-1,5.65359E-1,4.51249E-2,1.0978317E-1,3.3369148E-1,2.241392E-1,3.5436522E-2,-6.6975206E-2,4.9725622E-2,6.3564084E-2,4.8825186E-2,2.5449688E0,7.9003305E0,3.5750094E-1,1.4289452E1,3.1255805E-1,1.5450122E1,5.100032E-1,6.4544424E-2,2.8591392E0,-4.5615025E-2,9.480699E0,7.5526986E0,1.4988245E-1,6.311488E0,6.3032694E-2,2.0446265E-1,-1.5794066E-1,2.614788E0,4.5218587E-2,5.033051E-2,-1.0397289E-1,4.2601514E0,1.1263447E-1,9.314465E0,3.887009E-2,1.4553779E1,-1.516372E-2],"split_indices":[1098545,1110141,530175,345519,0,403860,1079977,1092057,0,102633,503488,403860,830763,1075078,0,0,530175,144920,1139354,131259,78516,413721,218476,87883,11754,229525,1356599,0,0,2315,294729,15760,0,0,1092462,0,1585757,0,1240872,0,0,0,0,0,0,0,0,0,0,0,0,0,0,0,0,0,0,0,0],"split_type":[0,0,0,0,0,0,0,0,0,0,0,0,0,0,0,0,0,0,0,0,0,0,0,0,0,0,0,0,0,0,0,0,0,0,0,0,0,0,0,0,0,0,0,0,0,0,0,0,0,0,0,0,0,0,0,0,0,0,0],"sum_hessian":[4.79539E6,4.3E1,4.795347E6,4E1,3E0,8.968E4,4.705667E6,3.7E1,3E0,8.9635E4,4.5E1,3.8735E4,4.666932E6,3.5E1,2E0,5E0,8.963E4,4E0,4.1E1,2.4E1,3.8711E4,1.93264E5,4.473668E6,3.2E1,3E0,2.0677E4,6.8953E4,2E0,2E0,3E0,3.8E1,2E0,2.2E1,1E0,3.871E4,1E0,1.93263E5,1E0,4.473667E6,3.1E1,1E0,1E0,2E0,1E0,2.0676E4,2E0,6.8951E4,1E0,2E0,3.5E1,3E0,1E0,1E0,4E0,3.8706E4,1E0,1.93262E5,1E0,4.473666E6],"tree_param":{"num_deleted":"0","num_feature":"2086590","num_nodes":"59","size_leaf_vector":"1"}},{"base_weights":[2.699774E-1,1.4092435E0,2.2496688E-1,7.691144E1,1.4063358E0,1.3005116E0,1.8890664E-1,1.0727526E0,1.776721E1,1.3725566E1,1.4048374E0,1.3000366E1,1.2987828E0,1.2041763E0,1.5955628E-1,-1.3164543E0,3.1043753E-1,2.3579855E0,1.2074194E0,1.9154038E0,1.0055887E0,9.137781E0,1.1998523E0,2.4622129E-1,-1.2698023E-1,-8.069426E-3,-1.8939872E-1,1.0204053E1,2.3451576E0,9.553414E0,1.2055371E0,8.378321E0,1.9119687E0,1.0034698E0,1.07951E1,1.5125917E1,1.1974496E0,1.2294513E0,2.201733E-1,-1.2768689E-1,5.9206318E1,7.6276164E0,2.3379886E-1,8.573708E0,1.2044094E-1,3.0244818E-1,1.7015114E-1,8.262669E0,1.0018504E-1,1.1952942E-1,1.3574979E1,1.29079075E1,1.22646235E-1,1.9786505E1,2.200514E-2,1.3859302E1,-1.2796216E-2,1.42369585E1,-1.7151028E-2],"categories":[],"categories_nodes":[],"categories_segments":[],"categories_sizes":[],"default_left":[0,0,0,1,0,0,0,0,0,0,0,0,0,0,1,0,0,0,0,0,1,0,0,0,1,0,0,0,0,0,0,0,0,0,0,0,1,0,0,0,0,0,0,0,0,0,0,0,0,0,0,0,0,0,0,0,0,0,0],"id":18,"left_children":[1,3,5,7,9,11,13,15,-1,-1,17,-1,19,21,23,25,-1,27,29,31,33,-1,35,37,39,-1,-1,-1,41,-1,43,-1,45,47,-1,-1,49,51,53,55,57,-1,-1,-1,-1,-1,-1,-1,-1,-1,-1,-1,-1,-1,-1,-1,-1,-1,-1],"loss_changes":[2.4590225E5,3.9903625E4,1.7891745E5,5.33003E4,3.690853E4,3.3127766E4,1.3300512E5,2.8356606E1,0E0,0E0,3.4290875E4,0E0,2.705289E4,4.8788594E4,1.0772618E5,1.9882421E0,0E0,3.9746016E4,2.6691672E4,1.3401578E4,2.2874086E4,0E0,4.503489E4,8.530256E4,4.2245773E4,0E0,0E0,0E0,1.6393484E4,0E0,1.4289906E4,0E0,1.1285625E4,1.3323961E4,0E0,0E0,3.6207797E4,3.2690312E4,7.8126984E4,3.848693E4,5.928106E4,0E0,0E0,0E0,0E0,0E0,0E0,0E0,0E0,0E0,0E0,0E0,0E0,0E0,0E0,0E0,0E0,0E0,0E0],"parents":[2147483647,0,0,1,1,2,2,3,3,4,4,5,5,6,6,7,7,10,10,12,12,13,13,14,14,15,15,17,17,18,18,19,19,20,20,22,22,23,23,24,24,28,28,30,30,32,32,33,33,36,36,37,37,38,38,39,39,40,40],"right_children":[2,4,6,8,10,12,14,16,-1,-1,18,-1,20,22,24,26,-1,28,30,32,34,-1,36,38,40,-1,-1,-1,42,-1,44,-1,46,48,-1,-1,50,52,54,56,58,-1,-1,-1,-1,-1,-1,-1,-1,-1,-1,-1,-1,-1,-1,-1,-1,-1,-1],"split_conditions":[4.8220795E-2,3.5251024E-1,4.953091E-2,5.021921E-2,3.4924978E-1,4.3406826E-1,5.4965984E-2,1.4566693E-1,1.776721E1,1.3725566E1,2.8615164E-2,1.3000366E1,3.469328E-2,7.770096E-2,5.838268E-2,5.0577506E-2,3.1043753E-1,1.8858255E-1,7.7867314E-2,6.370218E-2,3.87393E-1,9.137781E0,1.434259E-1,3.4815267E-2,2.6031923E-1,-8.069426E-3,-1.8939872E-1,1.0204053E1,1.4408617E-1,9.553414E0,2.2442202E-1,8.378321E0,2.3334071E-2,4.155265E-1,1.07951E1,1.5125917E1,2.3020244E-1,2.9358208E-1,5.7175434E-1,2.8237322E-1,7.6938145E-2,7.6276164E0,2.3379886E-1,8.573708E0,1.2044094E-1,3.0244818E-1,1.7015114E-1,8.262669E0,1.0018504E-1,1.1952942E-1,1.3574979E1,1.29079075E1,1.22646235E-1,1.9786505E1,2.200514E-2,1.3859302E1,-1.2796216E-2,1.42369585E1,-1.7151028E-2],"split_indices":[585342,1098545,2008539,617611,859406,197349,936964,54930,0,0,585342,0,2008539,628977,742385,39520,0,1776110,312164,46232,422998,0,361590,1401323,1098545,0,0,0,1853624,0,4156,0,2008539,5725,0,0,400831,485598,1575359,304402,1860446,0,0,0,0,0,0,0,0,0,0,0,0,0,0,0,0,0,0],"split_type":[0,0,0,0,0,0,0,0,0,0,0,0,0,0,0,0,0,0,0,0,0,0,0,0,0,0,0,0,0,0,0,0,0,0,0,0,0,0,0,0,0,0,0,0,0,0,0,0,0,0,0,0,0,0,0,0,0,0,0],"sum_hessian":[4.79539E6,1.82256E5,4.613134E6,6E0,1.8225E5,1.49648E5,4.463486E6,4E0,2E0,1E0,1.82249E5,1E0,1.49647E5,1.25408E5,4.338078E6,2E0,2E0,3.1269E4,1.5098E5,4.8223E4,1.01424E5,5E0,1.25403E5,3.330688E6,1.00739E6,1E0,1E0,3E0,3.1266E4,2E0,1.50978E5,1E0,4.8222E4,1.01423E5,1E0,1E0,1.25402E5,8.5959E4,3.244729E6,1.007379E6,1.1E1,2E0,3.1264E4,1E0,1.50977E5,7.669E3,4.0553E4,1E0,1.01422E5,1.25401E5,1E0,1E0,8.5958E4,1E0,3.244728E6,1E0,1.007378E6,4E0,7E0],"tree_param":{"num_deleted":"0","num_feature":"2086590","num_nodes":"59","size_leaf_vector":"1"}},{"base_weights":[-1.7953277E-1,2.4949276E-1,-1.9898272E-1,8.758377E0,2.486517E-1,4.718915E-2,-2.2284569E-1,2.479543E-1,7.2644496E0,4.671925E-2,9.52703E0,1.1957777E1,-2.2290292E-1,6.650354E0,2.4731593E-1,4.635722E-2,7.340482E0,9.991194E0,-2.2349396E-1,6.6160774E0,2.4668086E-1,6.011306E0,4.6060763E-2,1.7953512E1,8.512568E0,9.880208E0,-2.2354127E-1,4.151321E0,2.4568751E-2,3.1327028E-2,-1.8387809E-3,2.0472081E-1,1.9296799E0,7.536838E-1,2.043441E0,4.6176863E0,-2.2364108E-2],"categories":[],"categories_nodes":[],"categories_segments":[],"categories_sizes":[],"default_left":[0,0,0,0,1,1,0,0,0,1,0,0,0,0,0,0,0,0,0,0,0,0,0,0,1,0,0,0,0,0,0,0,0,0,0,0,0],"id":19,"left_children":[1,3,5,-1,7,9,11,13,-1,15,-1,-1,17,-1,19,21,-1,23,25,-1,27,-1,29,31,33,-1,35,-1,-1,-1,-1,-1,-1,-1,-1,-1,-1],"loss_changes":[4.0015312E4,1.5254638E4,2.6948328E4,0E0,1.0482355E4,1.8134967E4,2.8704344E4,8.779626E3,0E0,1.0762874E4,0E0,0E0,2.5248703E4,0E0,8.68919E3,7.2160503E3,0E0,2.6963066E3,1.9612094E4,0E0,8.514774E3,0E0,6.9813022E3,7.5106445E2,2.2422842E3,0E0,1.9376984E4,0E0,0E0,0E0,0E0,0E0,0E0,0E0,0E0,0E0,0E0],"parents":[2147483647,0,0,1,1,2,2,4,4,5,5,6,6,7,7,9,9,12,12,14,14,15,15,17,17,18,18,20,20,22,22,23,23,24,24,26,26],"right_children":[2,4,6,-1,8,10,12,14,-1,16,-1,-1,18,-1,20,22,-1,24,26,-1,28,-1,30,32,34,-1,36,-1,-1,-1,-1,-1,-1,-1,-1,-1,-1],"split_conditions":[6.557051E-2,6.370218E-2,5.6097303E-2,8.758377E0,1.9357662E-1,2.6182884E-1,1.7346422E-1,2.5904158E-1,7.2644496E0,2.472028E-1,9.52703E0,1.1957777E1,2.1248394E-1,6.650354E0,9.323367E-2,7.8883804E-2,7.340482E0,5.877229E-2,7.3067784E-1,6.6160774E0,8.5717484E-2,6.011306E0,3.1582523E-2,1.02050796E-1,6.624479E-2,9.880208E0,8.991602E-2,4.151321E0,2.4568751E-2,3.1327028E-2,-1.8387809E-3,2.0472081E-1,1.9296799E0,7.536838E-1,2.043441E0,4.6176863E0,-2.2364108E-2],"split_indices":[1026039,46232,1292656,0,262917,1263204,653927,510175,0,1716795,0,0,403860,0,147969,98110,0,530175,1300583,0,798598,0,1292656,945175,1616078,0,761052,0,0,0,0,0,0,0,0,0,0],"split_type":[0,0,0,0,0,0,0,0,0,0,0,0,0,0,0,0,0,0,0,0,0,0,0,0,0,0,0,0,0,0,0,0,0,0,0,0,0],"sum_hessian":[4.79539E6,2.07971E5,4.587419E6,1E0,2.0797E5,4.0539E5,4.182029E6,2.07969E5,1E0,4.05389E5,1E0,1E0,4.182028E6,1E0,2.07968E5,4.05388E5,1E0,2.41E2,4.181787E6,1E0,2.07967E5,1E0,4.05387E5,3.6E1,2.05E2,1E0,4.181786E6,4E0,2.07963E5,7.8775E4,3.26612E5,3E0,3.3E1,1.91E2,1.4E1,8E0,4.181778E6],"tree_param":{"num_deleted":"0","num_feature":"2086590","num_nodes":"37","size_leaf_vector":"1"}},{"base_weights":[-8.992216E-2,4.87997E1,-9.037073E-2,3.5046257E1,1.7757261E1,1.00085E0,-1.0494703E-1,1.7119879E1,1.9792141E1,8.272324E0,9.9695545E-1,7.284979E-1,-1.2064474E-1,9.37694E0,1.3817718E1,6.2800603E0,9.940063E-1,6.201712E1,7.263878E-1,2.0329835E-1,-1.5445092E-1,2.2114236E0,6.614822E1,7.4586573E0,9.916619E-1,1.797254E0,7.505314E0,1.2232838E0,4.7528523E-1,1.4677617E1,2.0262997E-1,1.1765262E1,-1.5533237E-1,5.8291685E-2,2.7161822E0,-4.333427E-2,8.848652E0,7.251514E0,9.89383E-2,7.419998E0,1.2182718E-1,6.164907E0,4.7317173E-2,1.3574979E1,2.0201186E-2,1.0368896E0,2.6068938E0,6.6539903E0,-1.55475065E-2],"categories":[],"categories_nodes":[],"categories_segments":[],"categories_sizes":[],"default_left":[0,1,0,0,0,0,0,0,1,0,0,0,0,1,0,0,0,0,0,0,0,1,0,0,0,0,0,0,0,0,0,1,0,0,0,0,0,0,0,0,0,0,0,0,0,0,0,0,0],"id":20,"left_children":[1,3,5,7,-1,9,11,-1,13,-1,15,17,19,21,-1,-1,23,25,27,29,31,33,35,-1,37,-1,-1,39,41,-1,43,45,47,-1,-1,-1,-1,-1,-1,-1,-1,-1,-1,-1,-1,-1,-1,-1,-1],"loss_changes":[1.05169555E5,7.1703875E4,7.627473E4,8.176395E4,0E0,2.0035605E4,6.1911492E4,0E0,4.555847E4,0E0,1.1458625E4,1.1268746E4,5.0864977E4,1.4498356E4,0E0,0E0,1.083109E4,3.7360156E2,1.0914336E4,4.2967367E4,4.4189984E4,1.3250193E3,5.987621E3,0E0,1.02305625E4,0E0,0E0,1.06504375E4,7.484497E3,0E0,3.6746188E4,5.9413555E3,4.0034336E4,0E0,0E0,0E0,0E0,0E0,0E0,0E0,0E0,0E0,0E0,0E0,0E0,0E0,0E0,0E0,0E0],"parents":[2147483647,0,0,1,1,2,2,3,3,5,5,6,6,8,8,10,10,11,11,12,12,13,13,16,16,17,17,18,18,19,19,20,20,21,21,22,22,24,24,27,27,28,28,30,30,31,31,32,32],"right_children":[2,4,6,8,-1,10,12,-1,14,-1,16,18,20,22,-1,-1,24,26,28,30,32,34,36,-1,38,-1,-1,40,42,-1,44,46,48,-1,-1,-1,-1,-1,-1,-1,-1,-1,-1,-1,-1,-1,-1,-1,-1],"split_conditions":[3.5251024E-1,4.7224816E-2,6.1379287E-2,1.3376296E-1,1.7757261E1,8.250961E-2,1.0949214E-1,1.7119879E1,7.362898E-2,8.272324E0,1.3922301E-1,7.615782E-2,4.9522296E-2,7.129182E-2,1.3817718E1,6.2800603E0,1.5682673E-1,7.940928E-2,6.366965E-2,5.65359E-1,2.3819908E-1,4.51249E-2,1.0978317E-1,7.4586573E0,4.144609E-1,1.797254E0,7.505314E0,8.102874E-2,1.6333E-1,1.4677617E1,1.637354E-1,5.0452285E-2,7.404049E-2,5.8291685E-2,2.7161822E0,-4.333427E-2,8.848652E0,7.251514E0,9.89383E-2,7.419998E0,1.2182718E-1,6.164907E0,4.7317173E-2,1.3574979E1,2.0201186E-2,1.0368896E0,2.6068938E0,6.6539903E0,-1.55475065E-2],"split_indices":[1098545,1110141,703571,180953,0,1862716,1348608,0,664224,0,20606,1659498,814966,1075078,0,0,170509,3299,1348608,218476,403860,87883,11754,0,920830,0,0,181920,498881,0,413721,558095,508310,0,0,0,0,0,0,0,0,0,0,0,0,0,0,0,0],"split_type":[0,0,0,0,0,0,0,0,0,0,0,0,0,0,0,0,0,0,0,0,0,0,0,0,0,0,0,0,0,0,0,0,0,0,0,0,0,0,0,0,0,0,0,0,0,0,0,0,0],"sum_hessian":[4.79539E6,4.3E1,4.795347E6,4E1,3E0,6.321E4,4.732137E6,3E0,3.7E1,2E0,6.3208E4,8.748E4,4.644657E6,3.5E1,2E0,2E0,6.3206E4,2E0,8.7478E4,4.38905E5,4.205752E6,3.2E1,3E0,1E0,6.3205E4,1E0,1E0,2.9365E4,5.8113E4,1E0,4.38904E5,3.1E2,4.205442E6,3.1E1,1E0,1E0,2E0,1E0,6.3204E4,1E0,2.9364E4,1E0,5.8112E4,1E0,4.38903E5,2.84E2,2.6E1,8E0,4.205434E6],"tree_param":{"num_deleted":"0","num_feature":"2086590","num_nodes":"49","size_leaf_vector":"1"}},{"base_weights":[2.4302298E-1,1.2976123E0,2.0055935E-1,1.2952666E0,1.4599243E1,1.3888289E0,1.7220426E-1,2.2073178E0,1.0865877E0,1.3864144E0,1.30392885E1,7.616368E1,1.7178226E-1,8.180645E0,2.2003438E0,1.07161045E1,1.0851761E0,1.2262511E1,1.3841445E0,1.6121895E2,3.413003E1,6.3408625E-1,1.149951E-1,9.21012E0,2.1950772E0,1.0676928E1,1.0837696E0,1.3821849E0,1.0596236E1,2.9324574E1,2.002963E1,1.2428021E1,1.5093744E1,6.3339657E-1,1.7016756E1,6.006306E-1,7.093476E-2,8.145022E0,2.1904266E-1,1.0823675E-1,1.0642632E1,2.1389239E-1,1.13737606E-1,4.441118E0,-4.243132E-2,1.1540425E1,7.1276E-2,1.4369621E1,6.328144E-2,5.9992142E-2,1.1855815E1,1.879718E1,7.0832516E-3],"categories":[],"categories_nodes":[],"categories_segments":[],"categories_sizes":[],"default_left":[0,1,0,0,0,1,0,0,0,0,0,0,0,0,0,0,0,0,1,0,0,1,0,0,0,0,1,0,0,0,0,0,0,0,0,1,0,0,0,0,0,0,0,0,0,0,0,0,0,0,0,0,0],"id":21,"left_children":[1,3,5,7,-1,9,11,13,15,17,-1,19,21,-1,23,-1,25,-1,27,29,31,33,35,-1,37,-1,39,41,-1,43,-1,-1,45,47,-1,49,51,-1,-1,-1,-1,-1,-1,-1,-1,-1,-1,-1,-1,-1,-1,-1,-1],"loss_changes":[2.147454E5,6.2809125E4,1.5531927E5,3.532453E4,0E0,3.3282797E4,1.4436839E5,1.900489E4,2.2502703E4,2.9396281E4,0E0,8.387717E4,1.1819894E5,0E0,1.6160453E4,0E0,2.2337375E4,0E0,2.1871719E4,3.535908E4,2.901439E4,5.748303E4,8.579822E4,0E0,1.25586875E4,0E0,2.2193234E4,1.990039E4,0E0,1.365273E3,0E0,0E0,2.2998766E4,4.0933703E4,0E0,2.7827773E4,7.061351E4,0E0,0E0,0E0,0E0,0E0,0E0,0E0,0E0,0E0,0E0,0E0,0E0,0E0,0E0,0E0,0E0],"parents":[2147483647,0,0,1,1,2,2,3,3,5,5,6,6,7,7,8,8,9,9,11,11,12,12,14,14,16,16,18,18,19,19,20,20,21,21,22,22,24,24,26,26,27,27,29,29,32,32,33,33,35,35,36,36],"right_children":[2,4,6,8,-1,10,12,14,16,18,-1,20,22,-1,24,-1,26,-1,28,30,32,34,36,-1,38,-1,40,42,-1,44,-1,-1,46,48,-1,50,52,-1,-1,-1,-1,-1,-1,-1,-1,-1,-1,-1,-1,-1,-1,-1,-1],"split_conditions":[3.7376456E-2,3.3892617E-1,6.0738318E-2,2.3890892E-2,1.4599243E1,2.9473132E-1,2.8210354E-1,2.7447617E-1,3.1255805E-1,2.9358208E-1,1.30392885E1,5.5238556E-2,6.660581E-2,8.180645E0,9.323367E-2,1.07161045E1,8.282455E-2,1.2262511E1,2.2582299E-1,6.910599E-2,9.520171E-2,3.4943166E-1,6.4746715E-2,9.21012E0,2.2442202E-1,1.0676928E1,3.0682862E-1,3.8219444E-2,1.0596236E1,4.5760177E-2,2.002963E1,1.2428021E1,5.207128E-2,3.3283144E-1,1.7016756E1,4.5624164E-1,3.043344E-1,8.145022E0,2.1904266E-1,1.0823675E-1,1.0642632E1,2.1389239E-1,1.13737606E-1,4.441118E0,-4.243132E-2,1.1540425E1,7.1276E-2,1.4369621E1,6.328144E-2,5.9992142E-2,1.1855815E1,1.879718E1,7.0832516E-3],"split_indices":[202049,1098545,1619493,202049,0,693431,1098545,1853532,1585757,485598,0,809820,1292656,0,147969,0,541592,0,334630,665481,1853033,582562,798422,0,4156,0,453503,1619493,0,87883,0,0,149876,545572,0,270967,147222,0,0,0,0,0,0,0,0,0,0,0,0,0,0,0,0],"split_type":[0,0,0,0,0,0,0,0,0,0,0,0,0,0,0,0,0,0,0,0,0,0,0,0,0,0,0,0,0,0,0,0,0,0,0,0,0,0,0,0,0,0,0,0,0,0,0,0,0,0,0,0,0],"sum_hessian":[4.79539E6,1.85614E5,4.609776E6,1.85612E5,2E0,1.07436E5,4.50234E6,3.4559E4,1.51053E5,1.07435E5,1E0,2.4E1,4.502316E6,2E0,3.4557E4,1E0,1.51052E5,1E0,1.07434E5,7E0,1.7E1,4.9254E5,4.009776E6,1E0,3.4556E4,1E0,1.51051E5,1.07433E5,1E0,2E0,5E0,2E0,1.5E1,4.92539E5,1E0,3.33534E5,3.676242E6,1E0,3.4555E4,1.5105E5,1E0,2.6258E4,8.1175E4,1E0,1E0,1E0,1.4E1,1E0,4.92538E5,3.33533E5,1E0,1E0,3.676241E6],"tree_param":{"num_deleted":"0","num_feature":"2086590","num_nodes":"53","size_leaf_vector":"1"}},{"base_weights":[-1.6156119E-1,3.740234E-1,-1.7555423E-1,1.1743902E1,3.7210277E-1,3.555716E-1,-1.8618958E-1,5.2168037E1,3.7040278E-1,5.9724407E0,3.5427347E-1,1.1359888E1,-1.8623921E-1,-4.192627E-2,6.9836893E0,7.028147E0,3.6925456E-1,3.9426916E0,3.5299188E-1,7.407985E0,-1.8685915E-1,3.6820054E-1,6.4527664E0,4.761244E0,3.519577E-1,1.845962E1,6.3553314E0,2.0237619E-1,-1.9788729E-1,6.3281474E0,3.6716696E-2,3.8088548E0,3.507198E-2,-4.6485316E-2,1.9736747E0,5.4045296E-1,1.6858829E0,6.722406E0,2.0078162E-2,6.745601E0,-1.9794798E-2],"categories":[],"categories_nodes":[],"categories_segments":[],"categories_sizes":[],"default_left":[0,0,0,0,0,0,0,0,0,0,0,0,0,0,0,0,1,0,0,0,0,0,0,0,0,0,1,0,0,0,0,0,0,0,0,0,0,0,0,0,0],"id":22,"left_children":[1,3,5,-1,7,9,11,13,15,-1,17,-1,19,-1,-1,-1,21,-1,23,25,27,29,-1,-1,31,33,35,37,39,-1,-1,-1,-1,-1,-1,-1,-1,-1,-1,-1,-1],"loss_changes":[3.5938953E4,2.7408736E4,2.639811E4,0E0,1.073149E4,7.0493467E3,2.5894062E4,3.7459092E3,9.775139E3,0E0,4.58004E3,0E0,2.1571156E4,0E0,0E0,0E0,8.232604E3,0E0,4.466884E3,4.233631E3,1.9664922E4,7.9161543E3,0E0,0E0,4.272167E3,7.825801E2,3.334338E3,1.3475998E4,1.8308188E4,0E0,0E0,0E0,0E0,0E0,0E0,0E0,0E0,0E0,0E0,0E0,0E0],"parents":[2147483647,0,0,1,1,2,2,4,4,5,5,6,6,7,7,8,8,10,10,12,12,16,16,18,18,19,19,20,20,21,21,24,24,25,25,26,26,27,27,28,28],"right_children":[2,4,6,-1,8,10,12,14,16,-1,18,-1,20,-1,-1,-1,22,-1,24,26,28,30,-1,-1,32,34,36,38,40,-1,-1,-1,-1,-1,-1,-1,-1,-1,-1,-1,-1],"split_conditions":[3.942238E-2,1.3653848E-1,2.9253608E-2,1.1743902E1,8.450517E-2,3.361134E-1,1.7346422E-1,5.13285E-2,4.155265E-1,5.9724407E0,1.8225667E-1,1.1359888E1,2.3819908E-1,-4.192627E-2,6.9836893E0,7.028147E0,1.459792E-1,3.9426916E0,6.0756776E-2,1.7611118E-1,4.6994854E-2,4.4588143E-1,6.4527664E0,4.761244E0,7.654565E-2,4.8006386E-2,6.6869244E-2,2.7447617E-1,7.206163E-2,6.3281474E0,3.6716696E-2,3.8088548E0,3.507198E-2,-4.6485316E-2,1.9736747E0,5.4045296E-1,1.6858829E0,6.722406E0,2.0078162E-2,6.745601E0,-1.9794798E-2],"split_indices":[1496064,1645283,1401323,0,2011551,58426,653927,2315,5725,0,779667,0,403860,0,0,0,1003864,0,48193,558095,660518,139662,0,0,1627886,1151951,1079977,1853532,590579,0,0,0,0,0,0,0,0,0,0,0,0],"split_type":[0,0,0,0,0,0,0,0,0,0,0,0,0,0,0,0,0,0,0,0,0,0,0,0,0,0,0,0,0,0,0,0,0,0,0,0,0,0,0,0,0],"sum_hessian":[4.79539E6,1.22097E5,4.673293E6,1E0,1.22096E5,9.1741E4,4.581552E6,3E0,1.22093E5,1E0,9.174E4,1E0,4.581551E6,1E0,2E0,1E0,1.22092E5,2E0,9.1738E4,3.73E2,4.581178E6,1.22091E5,1E0,1E0,9.1737E4,3.1E1,3.42E2,1.26221E5,4.454957E6,1E0,1.2209E5,2E0,9.1735E4,2E0,2.9E1,3.15E2,2.7E1,2E0,1.26219E5,3E0,4.454954E6],"tree_param":{"num_deleted":"0","num_feature":"2086590","num_nodes":"41","size_leaf_vector":"1"}},{"base_weights":[-8.08984E-2,4.528961E1,-8.131468E-2,3.257864E1,1.6425467E1,7.1750915E-1,-9.980246E-2,1.8431599E1,1.5883089E1,8.275195E0,7.1599E-1,4.527689E-1,-1.2196197E-1,8.760907E0,1.2833603E1,7.0553546E0,7.146957E-1,4.454382E1,4.5032638E-1,3.7605813E-1,-1.402508E-1,2.934515E0,7.187305E0,6.8707757E0,7.134354E-1,6.6410124E-1,1.1019737E1,2.8416426E1,4.4722825E-1,1.289623E1,3.744446E-1,1.3943735E1,-1.40315E-1,4.8554376E-2,4.187528E0,3.387539E0,7.109829E-2,1.1411517E-1,-3.5234984E-2,6.3528433E0,8.830677E-1,8.847732E0,4.4625133E-2,7.175841E0,3.735478E-2,1.3826866E1,-1.4037865E-2],"categories":[],"categories_nodes":[],"categories_segments":[],"categories_sizes":[],"default_left":[0,1,0,1,0,0,0,1,0,0,0,0,0,1,0,0,0,1,0,0,0,1,0,0,0,1,0,0,0,0,0,0,0,0,0,0,0,0,0,0,0,0,0,0,0,0,0],"id":23,"left_children":[1,3,5,7,-1,9,11,13,-1,-1,15,17,19,21,-1,-1,23,25,27,29,31,33,-1,-1,35,37,-1,39,41,-1,43,-1,45,-1,-1,-1,-1,-1,-1,-1,-1,-1,-1,-1,-1,-1,-1],"loss_changes":[9.0574086E4,6.11839E4,7.082006E4,7.030242E4,0E0,1.3459023E4,5.7389516E4,3.9264027E4,0E0,0E0,9.754242E3,1.9441082E4,4.104317E4,1.3026867E4,0E0,0E0,9.245773E3,2.873541E4,1.5643582E4,3.3069113E4,3.8963812E4,3.2220715E3,0E0,0E0,8.797863E3,3.7963731E0,0E0,1.3192899E4,1.54985625E4,0E0,1.0191328E4,0E0,3.8314086E4,0E0,0E0,0E0,0E0,0E0,0E0,0E0,0E0,0E0,0E0,0E0,0E0,0E0,0E0],"parents":[2147483647,0,0,1,1,2,2,3,3,5,5,6,6,7,7,10,10,11,11,12,12,13,13,16,16,17,17,18,18,19,19,20,20,21,21,24,24,25,25,27,27,28,28,30,30,32,32],"right_children":[2,4,6,8,-1,10,12,14,-1,-1,16,18,20,22,-1,-1,24,26,28,30,32,34,-1,-1,36,38,-1,40,42,-1,44,-1,46,-1,-1,-1,-1,-1,-1,-1,-1,-1,-1,-1,-1,-1,-1],"split_conditions":[3.5251024E-1,4.7224816E-2,5.5287134E-2,5.023957E-2,1.6425467E1,1.6010247E-1,6.953247E-2,9.000048E-2,1.5883089E1,8.275195E0,3.5820942E-2,5.9713602E-2,6.2537186E-2,6.0179994E-2,1.2833603E1,7.0553546E0,1.7238419E-1,2.5803674E-2,1.4137015E-1,1.637354E-1,5.65359E-1,9.419125E-2,7.187305E0,6.8707757E0,5.6835044E-2,4.911858E-2,1.1019737E1,9.597826E-2,3.1255805E-1,1.289623E1,3.3369148E-1,1.3943735E1,5.100032E-1,4.8554376E-2,4.187528E0,3.387539E0,7.109829E-2,1.1411517E-1,-3.5234984E-2,6.3528433E0,8.830677E-1,8.847732E0,4.4625133E-2,7.175841E0,3.735478E-2,1.3826866E1,-1.4037865E-2],"split_indices":[1098545,1110141,1151951,345519,0,107365,1092618,1092057,0,0,28134,219818,765891,1197420,0,0,265540,232239,100432,413721,218476,87883,0,0,1598716,127671,0,28400,1585757,0,229525,0,1240872,0,0,0,0,0,0,0,0,0,0,0,0,0,0],"split_type":[0,0,0,0,0,0,0,0,0,0,0,0,0,0,0,0,0,0,0,0,0,0,0,0,0,0,0,0,0,0,0,0,0,0,0,0,0,0,0,0,0,0,0,0,0,0,0],"sum_hessian":[4.79539E6,4.3E1,4.795347E6,4E1,3E0,1.08471E5,4.686876E6,3.7E1,3E0,1E0,1.0847E5,1.80708E5,4.506168E6,3.5E1,2E0,1E0,1.08469E5,9E0,1.80699E5,1.59618E5,4.34655E6,3.3E1,2E0,1E0,1.08468E5,6E0,3E0,1.9E1,1.8068E5,1E0,1.59617E5,1E0,4.346549E6,3.2E1,1E0,7E0,1.08461E5,4E0,2E0,6E0,1.3E1,1E0,1.80679E5,1E0,1.59616E5,1E0,4.346548E6],"tree_param":{"num_deleted":"0","num_feature":"2086590","num_nodes":"47","size_leaf_vector":"1"}},{"base_weights":[2.1876644E-1,1.224565E0,1.7928325E-1,1.2231481E0,1.2893066E1,1.2585291E0,1.5128647E-1,2.1845381E0,1.0430162E0,1.255047E0,1.362596E1,8.40157E-1,1.17383845E-1,1.1649386E1,2.1764627E0,1.0400685E0,1.13201805E2,1.2529342E0,1.2387324E1,1.6262238E1,8.386193E-1,1.8671633E-1,-1.6481024E-1,2.1497202E0,2.332127E1,8.295371E0,1.0384507E0,3.2809123E-1,1.4874846E1,7.756924E1,1.2503068E0,1.1753314E1,8.37509E-1,6.76294E1,1.864223E-1,-1.650688E-1,4.358737E0,8.749614E0,2.1436651E-1,4.0104403E0,2.2045732E-1,5.9420404E0,1.036913E-1,5.5880696E-1,9.970027E0,1.01803E1,1.2485724E-1,8.364452E-2,1.1263025E1,3.8013062E-1,1.0975909E1,9.2117764E-2,1.6024059E-2,-1.654793E-2,2.654345E0],"categories":[],"categories_nodes":[],"categories_segments":[],"categories_sizes":[],"default_left":[0,1,0,0,0,1,0,0,1,1,0,0,1,0,1,0,0,0,0,0,0,0,1,0,1,0,0,0,0,0,0,0,1,0,0,1,0,0,0,0,0,0,0,0,0,0,0,0,0,0,0,0,0,0,0],"id":24,"left_children":[1,3,5,7,-1,9,11,13,15,17,-1,19,21,-1,23,25,27,29,-1,-1,31,33,35,37,39,-1,41,-1,-1,43,45,-1,47,49,51,53,-1,-1,-1,-1,-1,-1,-1,-1,-1,-1,-1,-1,-1,-1,-1,-1,-1,-1,-1],"loss_changes":[1.9043495E5,3.2616562E4,1.394215E5,3.1365969E4,0E0,5.4675688E4,1.0503885E5,2.6130328E4,5.0318625E4,3.006939E4,0E0,5.234678E4,8.386873E4,0E0,1.6111375E4,2.0128844E4,1.5141258E4,2.3295953E4,0E0,0E0,2.7234766E4,6.822799E4,9.571297E3,1.4564453E4,1.2670139E4,0E0,1.3633094E4,0E0,0E0,5.8149375E3,2.0220484E4,0E0,2.4994781E4,3.991864E4,6.619771E4,9.273598E3,0E0,0E0,0E0,0E0,0E0,0E0,0E0,0E0,0E0,0E0,0E0,0E0,0E0,0E0,0E0,0E0,0E0,0E0,0E0],"parents":[2147483647,0,0,1,1,2,2,3,3,5,5,6,6,7,7,8,8,9,9,11,11,12,12,14,14,15,15,16,16,17,17,20,20,21,21,22,22,23,23,24,24,26,26,29,29,30,30,32,32,33,33,34,34,35,35],"right_children":[2,4,6,8,-1,10,12,14,16,18,-1,20,22,-1,24,26,28,30,-1,-1,32,34,36,38,40,-1,42,-1,-1,44,46,-1,48,50,52,54,-1,-1,-1,-1,-1,-1,-1,-1,-1,-1,-1,-1,-1,-1,-1,-1,-1,-1,-1],"split_conditions":[4.292344E-2,2.3020244E-1,3.182487E-2,2.5770593E-2,1.2893066E1,3.3892617E-1,4.9064625E-2,2.9358208E-1,1.555286E-1,2.9473132E-1,1.362596E1,5.65359E-1,6.366281E-2,1.1649386E1,8.24398E-2,2.984415E-1,4.187112E-2,8.3758235E-2,1.2387324E1,1.6262238E1,3.3122742E-1,2.8210354E-1,3.6196262E-1,9.323367E-2,2.27458E-2,8.295371E0,8.250961E-2,3.2809123E-1,1.4874846E1,2.876465E-2,3.1255805E-1,1.1753314E1,4.5624164E-1,2.0769602E-1,5.3794753E-2,4.230705E-1,4.358737E0,8.749614E0,2.1436651E-1,4.0104403E0,2.2045732E-1,5.9420404E0,1.036913E-1,5.5880696E-1,9.970027E0,1.01803E1,1.2485724E-1,8.364452E-2,1.1263025E1,3.8013062E-1,1.0975909E1,9.2117764E-2,1.6024059E-2,-1.654793E-2,2.654345E0],"split_indices":[127671,400831,814966,127671,0,1098545,809820,485598,1098545,693431,0,218476,830763,0,1388550,378474,129516,1157921,0,0,143876,1098545,788783,147969,1066086,0,1862716,0,0,10477,1585757,0,270967,1519190,660518,1219951,0,0,0,0,0,0,0,0,0,0,0,0,0,0,0,0,0,0,0],"split_type":[0,0,0,0,0,0,0,0,0,0,0,0,0,0,0,0,0,0,0,0,0,0,0,0,0,0,0,0,0,0,0,0,0,0,0,0,0,0,0,0,0,0,0,0,0,0,0,0,0,0,0,0,0,0,0],"sum_hessian":[4.79539E6,1.81134E5,4.614256E6,1.81133E5,1E0,1.16671E5,4.497585E6,2.8581E4,1.52552E5,1.16669E5,2E0,2.10964E5,4.286621E6,1E0,2.858E4,1.52549E5,3E0,1.16668E5,1E0,1E0,2.10963E5,3.44116E6,8.45461E5,2.8545E4,3.5E1,2E0,1.52547E5,1E0,2E0,3E0,1.16665E5,1E0,2.10962E5,1.4E1,3.441146E6,8.45457E5,4E0,1E0,2.8544E4,1.9E1,1.6E1,3E0,1.52544E5,1E0,2E0,1E0,1.16664E5,2.10961E5,1E0,6E0,8E0,1.18399E5,3.322747E6,8.45445E5,1.2E1],"tree_param":{"num_deleted":"0","num_feature":"2086590","num_nodes":"55","size_leaf_vector":"1"}},{"base_weights":[-1.4538713E-1,4.8310032E-1,-1.5621524E-1,5.723468E0,4.8099813E-1,-1.5422162E-3,-1.9112706E-1,6.28427E0,4.794565E-1,1.0791893E1,-1.7908477E-3,1.1156707E1,-1.9118513E-1,4.7812623E-1,5.4260664E0,-1.9988685E-3,9.029137E0,4.8139404E1,-1.9129817E-1,5.361556E0,4.7681177E-1,7.983178E0,-2.1827924E-3,6.1894965E0,-3.3646027E-4,9.387187E0,-1.9134703E-1,5.2141304E0,4.755336E-2,-2.3597121E-4,7.6791368E0,7.697916E-1,-1.9183112E-2],"categories":[],"categories_nodes":[],"categories_segments":[],"categories_sizes":[],"default_left":[0,0,0,0,0,0,0,0,1,0,1,0,0,0,0,0,0,1,0,0,0,0,1,0,0,0,0,0,0,0,0,0,0],"id":25,"left_children":[1,3,5,-1,7,9,11,-1,13,-1,15,-1,17,19,-1,21,-1,23,25,-1,27,-1,29,-1,-1,-1,31,-1,-1,-1,-1,-1,-1],"loss_changes":[3.263432E4,9.662348E3,2.545614E4,0E0,7.7779277E3,2.3293709E4,2.497975E4,0E0,5.78475E3,0E0,1.6305746E4,0E0,2.102264E4,5.647084E3,0E0,1.2746893E4,0E0,5.960285E3,1.7695734E4,0E0,5.3383457E3,0E0,1.1794526E4,0E0,0E0,0E0,1.4689609E4,0E0,0E0,0E0,0E0,0E0,0E0],"parents":[2147483647,0,0,1,1,2,2,4,4,5,5,6,6,8,8,10,10,12,12,13,13,15,15,17,17,18,18,20,20,22,22,26,26],"right_children":[2,4,6,-1,8,10,12,-1,14,-1,16,-1,18,20,-1,22,-1,24,26,-1,28,-1,30,-1,-1,-1,32,-1,-1,-1,-1,-1,-1],"split_conditions":[6.7285635E-2,4.8931226E-2,1.04106426E-1,5.723468E0,9.323367E-2,1.7346422E-1,1.3653848E-1,6.28427E0,2.290102E-1,1.0791893E1,5.3861856E-1,1.1156707E1,7.404049E-2,2.1119644E-1,5.4260664E0,6.370218E-2,9.029137E0,6.846767E-2,7.3067784E-1,5.361556E0,1.8426357E-1,7.983178E0,3.4689125E-1,6.1894965E0,-3.3646027E-4,9.387187E0,2.1248394E-1,5.2141304E0,4.755336E-2,-2.3597121E-4,7.6791368E0,7.697916E-1,-1.9183112E-2],"split_indices":[2074303,1161722,1066086,0,147969,653927,1645283,0,9096,0,1098545,0,508310,192783,0,46232,0,85054,1300583,0,206282,0,1421567,0,0,0,403860,0,0,0,0,0,0],"split_type":[0,0,0,0,0,0,0,0,0,0,0,0,0,0,0,0,0,0,0,0,0,0,0,0,0,0,0,0,0,0,0,0,0],"sum_hessian":[4.79539E6,8.1219E4,4.714171E6,2E0,8.1217E4,8.68109E5,3.846062E6,1E0,8.1216E4,1E0,8.68108E5,1E0,3.846061E6,8.1215E4,1E0,8.68107E5,1E0,8E0,3.846053E6,1E0,8.1214E4,1E0,8.68106E5,6E0,2E0,1E0,3.846052E6,1E0,8.1213E4,8.68105E5,1E0,2.35E2,3.845817E6],"tree_param":{"num_deleted":"0","num_feature":"2086590","num_nodes":"33","size_leaf_vector":"1"}},{"base_weights":[-7.2775766E-2,-7.32053E-2,3.807228E1,6.3485235E-1,-9.194114E-2,1.1260428E2,1.8574001E1,1.2251418E1,6.328754E-1,3.1582156E-1,-1.17694646E-1,1.72083E1,3.435819E1,4.923133E0,9.002528E1,6.3152057E-1,8.405345E0,3.152035E-1,8.592622E0,7.3184915E0,-1.1781139E-1,6.7962327E0,5.655417E-1,-2.5017536E-1,9.816777E0,1.6108726E0,1.2506887E1,8.404975E0,6.301658E-1,8.410756E0,3.145985E-1,1.1792697E0,-1.24152E-1,9.4420604E-2,-2.8522564E-2,1.2497542E-1,-4.6985632E-1,2.4581544E-1,-4.18455E-3,8.074992E0,6.288644E-2,7.5749927E0,3.1405374E-2,7.797876E0,1.17202856E-1,1.3246549E1,-1.24212615E-2,3.8043942E-2,-6.35282E-2],"categories":[],"categories_nodes":[],"categories_segments":[],"categories_sizes":[],"default_left":[1,0,0,0,0,1,1,0,1,1,0,0,0,1,0,0,0,0,0,0,0,0,1,0,0,0,0,0,0,0,0,0,0,0,0,0,0,0,0,0,0,0,0,0,0,0,0,0,0],"id":26,"left_children":[1,3,5,7,9,11,13,-1,15,17,19,-1,21,23,25,27,-1,29,-1,-1,31,-1,33,35,-1,37,-1,-1,39,-1,41,43,45,-1,-1,-1,47,-1,-1,-1,-1,-1,-1,-1,-1,-1,-1,-1,-1],"loss_changes":[7.857332E4,6.3615266E4,7.638377E4,2.9709219E4,4.9059273E4,4.5281266E4,4.2473156E4,0E0,1.3917805E4,1.4658285E4,3.761294E4,0E0,6.7750005E3,1.8355123E4,2.1487035E4,1.3917027E4,0E0,1.404232E4,0E0,0E0,3.6139184E4,0E0,1.5579326E0,1.2778925E1,0E0,4.3038173E0,0E0,0E0,1.2838168E4,0E0,1.1380961E4,1.1796053E4,3.5160023E4,0E0,0E0,0E0,4.883491E0,0E0,0E0,0E0,0E0,0E0,0E0,0E0,0E0,0E0,0E0,0E0,0E0],"parents":[2147483647,0,0,1,1,2,2,3,3,4,4,5,5,6,6,8,8,9,9,10,10,12,12,13,13,14,14,15,15,17,17,20,20,22,22,23,23,25,25,28,28,30,30,31,31,32,32,36,36],"right_children":[2,4,6,8,10,12,14,-1,16,18,20,-1,22,24,26,28,-1,30,-1,-1,32,-1,34,36,-1,38,-1,-1,40,-1,42,44,46,-1,-1,-1,48,-1,-1,-1,-1,-1,-1,-1,-1,-1,-1,-1,-1],"split_conditions":[1.2831493E-1,3.1148378E-2,7.6938145E-2,1.637354E-1,6.313151E-2,2.6382139E-2,3.486501E-2,1.2251418E1,1.704309E-1,3.87393E-1,7.770096E-2,1.72083E1,4.728779E-2,6.0468055E-2,8.272137E-2,6.39978E-2,8.405345E0,2.3029327E-1,8.592622E0,7.3184915E0,9.4428435E-2,6.7962327E0,1.0136614E-1,1.2381723E-1,9.816777E0,3.6495395E-2,1.2506887E1,8.404975E0,1.480886E-1,8.410756E0,4.155265E-1,1.6302715E-1,5.65359E-1,9.4420604E-2,-2.8522564E-2,1.2497542E-1,5.4549854E-2,2.4581544E-1,-4.18455E-3,8.074992E0,6.288644E-2,7.5749927E0,3.1405374E-2,7.797876E0,1.17202856E-1,1.3246549E1,-1.24212615E-2,3.8043942E-2,-6.35282E-2],"split_indices":[1098545,742385,1860446,413721,2008539,1066086,127671,0,1031031,422998,628977,0,251407,85479,805108,22801,0,693593,0,0,1079977,0,54930,1657894,0,127671,0,0,235920,0,5725,1777347,218476,0,0,0,1530391,0,0,0,0,0,0,0,0,0,0,0,0],"split_type":[0,0,0,0,0,0,0,0,0,0,0,0,0,0,0,0,0,0,0,0,0,0,0,0,0,0,0,0,0,0,0,0,0,0,0,0,0,0,0,0,0,0,0,0,0,0,0,0,0],"sum_hessian":[4.79539E6,4.795337E6,5.3E1,1.23617E5,4.67172E6,1E1,4.3E1,1E0,1.23616E5,2.77528E5,4.394192E6,5E0,5E0,3.7E1,6E0,1.23615E5,1E0,2.77527E5,1E0,6E0,4.394186E6,2E0,3E0,3.6E1,1E0,2E0,4E0,1E0,1.23614E5,1E0,2.77526E5,2.1375E4,4.372811E6,2E0,1E0,4E0,3.2E1,1E0,1E0,1E0,1.23613E5,1E0,2.77525E5,1E0,2.1374E4,1E0,4.37281E6,5E0,2.7E1],"tree_param":{"num_deleted":"0","num_feature":"2086590","num_nodes":"49","size_leaf_vector":"1"}},{"base_weights":[1.9692564E-1,1.0718609E0,1.57483E-1,1.0695767E0,9.535341E1,5.9937775E-1,9.815366E-2,2.2500048E0,9.598275E-1,8.951761E-2,1.1874417E1,1.5449127E1,5.9880996E-1,6.1543685E-1,5.9104323E-2,2.2156081E0,3.0929493E1,9.584231E-1,8.923591E0,1.0852477E2,5.98014E-1,1.2108583E1,6.145862E-1,8.615998E1,5.8829624E-2,2.1948318E0,4.7563583E1,5.5018663E-1,4.0388638E1,1.0061818E1,9.5736486E-1,-7.554729E-2,1.4520335E1,5.974924E-1,1.4195528E1,1.2382714E0,4.8447827E-1,-4.341081E0,1.3195314E2,7.179982E-1,3.199794E-2,9.014209E0,2.1846941E-1,7.8653045E0,1.3179299E0,1.9894446E-1,-1.3555388E-2,4.5844793E0,1.4637063E-1,9.671285E0,9.563478E-2,1.1444191E-1,4.6372365E-2,1.23393014E-1,1.0699874E1,4.831048E-2,6.4922547E0,-6.68148E-2,-9.516407E-1,3.5153303E-2,1.7576178E1,8.309997E0,7.135134E-2,1.7860413E1,3.189912E-3],"categories":[],"categories_nodes":[],"categories_segments":[],"categories_sizes":[],"default_left":[0,1,0,0,0,0,0,1,1,0,0,0,0,0,0,1,0,0,0,0,1,0,0,0,0,0,0,0,1,0,0,0,0,0,0,1,1,0,0,0,0,0,0,0,0,0,0,0,0,0,0,0,0,0,0,0,0,0,0,0,0,0,0,0,0],"id":27,"left_children":[1,3,5,7,9,11,13,15,17,-1,-1,-1,19,21,23,25,27,29,-1,31,33,-1,35,37,39,41,43,45,47,-1,49,-1,-1,51,-1,53,55,57,59,61,63,-1,-1,-1,-1,-1,-1,-1,-1,-1,-1,-1,-1,-1,-1,-1,-1,-1,-1,-1,-1,-1,-1,-1,-1],"loss_changes":[1.6548761E5,4.444497E4,1.20299125E5,2.6795484E4,1.0940949E4,4.7365266E4,8.1715266E4,1.7288508E4,2.3377453E4,0E0,0E0,0E0,4.659203E4,2.9026062E4,8.896061E4,1.6454195E4,6.0123867E3,1.9863422E4,0E0,1.6142668E4,3.996353E4,0E0,2.304075E4,5.030478E4,6.652707E4,1.5466422E4,7.5153184E3,6.191422E0,3.3309863E3,0E0,1.83375E4,0E0,0E0,3.9736156E4,0E0,2.2369938E4,2.0761531E4,8.868477E1,4.6060484E4,5.4296734E4,6.3776047E4,0E0,0E0,0E0,0E0,0E0,0E0,0E0,0E0,0E0,0E0,0E0,0E0,0E0,0E0,0E0,0E0,0E0,0E0,0E0,0E0,0E0,0E0,0E0,0E0],"parents":[2147483647,0,0,1,1,2,2,3,3,4,4,5,5,6,6,7,7,8,8,12,12,13,13,14,14,15,15,16,16,17,17,19,19,20,20,22,22,23,23,24,24,25,25,26,26,27,27,28,28,30,30,33,33,35,35,36,36,37,37,38,38,39,39,40,40],"right_children":[2,4,6,8,10,12,14,16,18,-1,-1,-1,20,22,24,26,28,30,-1,32,34,-1,36,38,40,42,44,46,48,-1,50,-1,-1,52,-1,54,56,58,60,62,64,-1,-1,-1,-1,-1,-1,-1,-1,-1,-1,-1,-1,-1,-1,-1,-1,-1,-1,-1,-1,-1,-1,-1,-1],"split_conditions":[3.82272E-2,1.2831493E-1,6.7189425E-2,2.0344198E-2,9.6402965E-2,5.65359E-1,6.117053E-2,9.035904E-2,1.801619E-1,8.951761E-2,1.1874417E1,1.5449127E1,1.434259E-1,1.432061E-1,2.656164E-1,6.6624105E-2,9.119128E-2,2.964367E-1,8.923591E0,4.778213E-2,2.70253E-1,1.2108583E1,3.5259873E-2,1.4147249E-1,7.434381E-2,6.5974995E-2,5.174989E-2,3.7880417E-2,4.2018637E-2,1.0061818E1,3.1255805E-1,-7.554729E-2,1.4520335E1,3.528924E-2,1.4195528E1,1.4530632E-1,2.2467917E-1,1.1852122E-1,1.744498E-1,8.991602E-2,5.100032E-1,9.014209E0,2.1846941E-1,7.8653045E0,1.3179299E0,1.9894446E-1,-1.3555388E-2,4.5844793E0,1.4637063E-1,9.671285E0,9.563478E-2,1.1444191E-1,4.6372365E-2,1.23393014E-1,1.0699874E1,4.831048E-2,6.4922547E0,-6.68148E-2,-9.516407E-1,3.5153303E-2,1.7576178E1,8.309997E0,7.135134E-2,1.7860413E1,3.189912E-3],"split_indices":[1860446,1098545,1066086,1860446,93309,218476,2047811,1388550,378474,0,0,0,361590,492835,1098545,2011063,583731,334630,0,15871,1093752,0,2047811,54930,936964,42261,246367,39520,258764,0,1585757,0,0,1066086,0,224870,1684267,54930,267538,761052,1240872,0,0,0,0,0,0,0,0,0,0,0,0,0,0,0,0,0,0,0,0,0,0,0,0],"split_type":[0,0,0,0,0,0,0,0,0,0,0,0,0,0,0,0,0,0,0,0,0,0,0,0,0,0,0,0,0,0,0,0,0,0,0,0,0,0,0,0,0,0,0,0,0,0,0,0,0,0,0,0,0,0,0,0,0,0,0,0,0,0,0,0,0],"sum_hessian":[4.79539E6,2.06853E5,4.588537E6,2.06849E5,4E0,5.43139E5,4.045398E6,1.7594E4,1.89255E5,1E0,3E0,1E0,5.43138E5,2.83948E5,3.76145E6,1.7574E4,2E1,1.89253E5,2E0,3E0,5.43135E5,1E0,2.83947E5,1.1E1,3.761439E6,1.7567E4,7E0,5E0,1.5E1,1E0,1.89252E5,1E0,2E0,5.43134E5,1E0,4.9009E4,2.34938E5,4E0,7E0,1.47121E5,3.614318E6,1E0,1.7566E4,3E0,4E0,1E0,4E0,1.3E1,2E0,1E0,1.89251E5,1.06734E5,4.364E5,4.9008E4,1E0,2.34934E5,4E0,3E0,1E0,2E0,5E0,7E0,1.47114E5,1E0,3.614317E6],"tree_param":{"num_deleted":"0","num_feature":"2086590","num_nodes":"65","size_leaf_vector":"1"}},{"base_weights":[-1.3082944E-1,4.1477972E-1,-1.4267331E-1,6.956432E0,4.127395E-1,1.1303254E-1,-1.6126293E-1,6.274893E0,4.1089988E-1,3.3625313E1,1.1103033E-1,1.0252299E1,-1.6130982E-1,6.6776996E0,4.0959302E-1,5.865506E1,5.2330327E0,1.0996039E-1,5.6811382E1,-1.2999083E-1,-2.8033376E-1,6.2419715E0,4.083717E-1,-1.6389632E-1,6.55365E0,2.5706222E0,1.0198715E-1,8.917829E0,1.0939998E-1,1.7125204E1,-3.2715406E-2,-1.3006747E-1,8.840128E1,5.5048183E1,-2.8057626E-1,5.970056E0,4.072037E-2,8.6730175E-2,-4.252204E-2,4.897219E0,1.0878514E-2,6.6843617E-1,-1.3064193E-2,-1.9903855E-2,1.3280097E1,1.1067869E1,-3.8821258E-2,6.012699E0,-2.807085E-2],"categories":[],"categories_nodes":[],"categories_segments":[],"categories_sizes":[],"default_left":[0,0,0,0,0,0,0,0,0,1,1,0,1,0,0,0,0,0,0,1,0,0,0,0,0,0,0,0,0,0,0,0,0,0,0,0,0,0,0,0,0,0,0,0,0,0,0,0,0],"id":28,"left_children":[1,3,5,-1,7,9,11,-1,13,15,17,-1,19,-1,21,23,25,27,29,31,33,-1,35,-1,-1,-1,37,-1,39,-1,-1,41,43,45,47,-1,-1,-1,-1,-1,-1,-1,-1,-1,-1,-1,-1,-1,-1],"loss_changes":[3.0988453E4,1.4345229E4,2.2310477E4,0E0,1.1657576E4,2.1339645E4,2.1088094E4,0E0,8.80892E3,1.3195439E4,1.928993E4,0E0,1.6310242E4,0E0,7.690496E3,4.256508E3,1.0478668E3,1.586642E4,3.928985E4,2.3513367E4,1.2244953E4,0E0,7.0310996E3,0E0,0E0,0E0,4.0001106E0,0E0,9.550397E3,0E0,0E0,1.3560566E4,1.1827908E4,1.2378785E4,7.298086E3,0E0,0E0,0E0,0E0,0E0,0E0,0E0,0E0,0E0,0E0,0E0,0E0,0E0,0E0],"parents":[2147483647,0,0,1,1,2,2,4,4,5,5,6,6,8,8,9,9,10,10,12,12,14,14,15,15,16,16,17,17,18,18,19,19,20,20,22,22,26,26,28,28,31,31,32,32,33,33,34,34],"right_children":[2,4,6,-1,8,10,12,-1,14,16,18,-1,20,-1,22,24,26,28,30,32,34,-1,36,-1,-1,-1,38,-1,40,-1,-1,42,44,46,48,-1,-1,-1,-1,-1,-1,-1,-1,-1,-1,-1,-1,-1,-1],"split_conditions":[4.452174E-2,4.629253E-2,7.631754E-2,6.956432E0,2.7447617E-1,4.9257617E-2,1.7346422E-1,6.274893E0,4.155265E-1,4.8811052E-2,2.2633044E-1,1.0252299E1,5.9385665E-2,6.6776996E0,6.5974995E-2,1.4764655E-1,5.8224227E-2,7.3067784E-1,2.1396703E-1,5.585896E-1,1.6617252E-1,6.2419715E0,9.323367E-2,-1.6389632E-1,6.55365E0,2.5706222E0,9.13357E-2,8.917829E0,8.5717484E-2,1.7125204E1,-3.2715406E-2,2.3218307E-1,1.9619629E-1,1.2731211E-1,4.4588143E-1,5.970056E0,4.072037E-2,8.6730175E-2,-4.252204E-2,4.897219E0,1.0878514E-2,6.6843617E-1,-1.3064193E-2,-1.9903855E-2,1.3280097E1,1.1067869E1,-3.8821258E-2,6.012699E0,-2.807085E-2],"split_indices":[1204025,178705,936964,0,1853532,756531,653927,0,5725,1237882,835524,0,830763,0,42261,15604,19211,1300583,34077,1252270,296929,0,147969,0,0,0,511663,0,798598,0,0,403860,131259,88407,139662,0,0,0,0,0,0,0,0,0,0,0,0,0,0],"split_type":[0,0,0,0,0,0,0,0,0,0,0,0,0,0,0,0,0,0,0,0,0,0,0,0,0,0,0,0,0,0,0,0,0,0,0,0,0,0,0,0,0,0,0,0,0,0,0,0,0],"sum_hessian":[4.79539E6,1.01884E5,4.693506E6,2E0,1.01882E5,3.18089E5,4.375417E6,2E0,1.0188E5,1.8E1,3.18071E5,1E0,4.375416E6,1E0,1.01879E5,9E0,9E0,3.18066E5,5E0,3.463944E6,9.11472E5,1E0,1.01878E5,1E0,8E0,1E0,8E0,1E0,3.18065E5,1E0,4E0,3.463942E6,2E0,3E0,9.11469E5,1E0,1.01877E5,3E0,5E0,3E0,3.18062E5,2.91E2,3.463651E6,1E0,1E0,1E0,2E0,1E0,9.11468E5],"tree_param":{"num_deleted":"0","num_feature":"2086590","num_nodes":"49","size_leaf_vector":"1"}},{"base_weights":[-6.546963E-2,-6.5865956E-2,3.513052E1,7.175429E-1,-8.147408E-2,1.03532074E2,1.723171E1,1.1638847E1,7.1506554E-1,6.563248E-1,-9.478296E-2,1.5774276E1,3.206606E1,1.2462865E1,9.150221E0,7.132318E-1,8.624086E0,6.546328E-1,7.080566E0,5.121693E-1,-1.0897784E-1,6.34315E1,5.2546203E-1,1.5853947E0,1.069645E1,1.2385118E0,4.9247676E-1,6.3187447E0,6.531237E-1,1.2584221E1,5.097894E-1,9.914624E0,-1.097575E-1,1.881196E0,7.633529E0,8.81259E-2,-2.7096435E-2,3.3528078E0,-9.3342595E-2,7.04813E0,1.2334706E-1,4.898567E-2,8.664817E0,1.18047E-1,4.7645226E-2,7.7166724E0,5.0760556E-2,8.6183304E-1,2.6473572E0,-1.0982913E-2,1.0767928E1,-3.3037562E-2,2.0632902E-1],"categories":[],"categories_nodes":[],"categories_segments":[],"categories_sizes":[],"default_left":[1,0,0,0,0,1,0,0,1,1,0,0,0,0,1,0,0,0,0,0,0,0,1,0,0,0,1,0,0,0,0,1,1,0,0,0,0,0,1,0,0,0,0,0,0,0,0,0,0,0,0,0,0],"id":29,"left_children":[1,3,5,7,9,11,13,-1,15,17,19,-1,21,-1,23,25,-1,27,-1,29,31,33,35,37,-1,39,41,-1,43,-1,45,47,49,-1,-1,-1,-1,-1,51,-1,-1,-1,-1,-1,-1,-1,-1,-1,-1,-1,-1,-1,-1],"loss_changes":[6.689366E4,5.8635266E4,6.4328516E4,2.6759586E4,4.6167047E4,3.7558234E4,3.7048418E4,0E0,1.4629129E4,9.841664E3,3.979002E4,0E0,5.902377E3,0E0,3.0908234E4,1.0861316E4,0E0,7.820465E3,0E0,3.141557E4,3.5268617E4,2.912666E2,1.3722541E0,2.1480645E3,0E0,9.588293E3,1.4845817E4,0E0,7.7609023E3,0E0,1.76291E4,7.3061523E3,3.485544E4,0E0,0E0,0E0,0E0,0E0,